{"learner":{"attributes":{"scikit_learn":"{\"_estimator_type\": \"classifier\"}"},"feature_names":[],"feature_types":[],"gradient_booster":{"model":{"gbtree_model_param":{"num_parallel_tree":"1","num_trees":"100"},"iteration_indptr":[0,1,2,3,4,5,6,7,8,9,10,11,12,13,14,15,16,17,18,19,20,21,22,23,24,25,26,27,28,29,30,31,32,33,34,35,36,37,38,39,40,41,42,43,44,45,46,47,48,49,50,51,52,53,54,55,56,57,58,59,60,61,62,63,64,65,66,67,68,69,70,71,72,73,74,75,76,77,78,79,80,81,82,83,84,85,86,87,88,89,90,91,92,93,94,95,96,97,98,99,100],"tree_info":[0,0,0,0,0,0,0,0,0,0,0,0,0,0,0,0,0,0,0,0,0,0,0,0,0,0,0,0,0,0,0,0,0,0,0,0,0,0,0,0,0,0,0,0,0,0,0,0,0,0,0,0,0,0,0,0,0,0,0,0,0,0,0,0,0,0,0,0,0,0,0,0,0,0,0,0,0,0,0,0,0,0,0,0,0,0,0,0,0,0,0,0,0,0,0,0,0,0,0,0],"trees":[{"base_weights":[-7.253964E-3,8.879923E-1,-7.966878E-1,3.237324E-1,1.206232E0,-1.0031861E0,3.6979905E-1,-1.7068255E-1,1.1990926E0,1.4678195E0,1.20149806E-1,-1.3440648E0,-4.5469627E-1,-1.9565012E-1,1.0206451E0,6.843342E-1,-3.0999243E-1,5.0272405E-1,5.908486E-3,1.654442E0,2.9288365E-2,4.1668037E-1,-2.4069576E-1,-4.3761328E-1,5.908486E-3,6.2474802E-2,-8.9900386E-1,5.908486E-3,4.5098636E-1,-1.35212345E-2,3.6669606E-1,5.908486E-3,5.5125153E-1,2.797564E-1,-3.274226E-1,-3.281047E-1,-4.3004103E-2,-1.9565012E-1,7.6555284E-3],"categories":[],"categories_nodes":[],"categories_segments":[],"categories_sizes":[],"default_left":[0,0,0,0,0,0,0,0,0,0,0,0,0,0,0,0,0,0,0,0,0,0,0,0,0,0,0,0,0,0,0,0,0,0,0,0,0,0,0],"id":0,"left_children":[1,3,5,7,9,11,13,15,17,19,21,23,25,-1,27,29,-1,-1,-1,31,-1,-1,-1,-1,-1,33,35,-1,-1,-1,-1,-1,-1,-1,37,-1,-1,-1,-1],"loss_changes":[4.0301777E1,4.4086056E0,7.6692142E0,4.9672613E0,4.574217E0,4.2520847E0,4.1826324E0,6.5395865E0,2.269956E0,3.2614918E0,6.1878724E0,2.4568653E0,2.6942525E0,0E0,1.7193134E0,1.8495772E0,0E0,0E0,0E0,3.470852E0,0E0,0E0,0E0,0E0,0E0,2.4222481E0,7.612481E-1,0E0,0E0,0E0,0E0,0E0,0E0,0E0,5.953812E-1,0E0,0E0,0E0,0E0],"parents":[2147483647,0,0,1,1,2,2,3,3,4,4,5,5,6,6,7,7,8,8,9,9,10,10,11,11,12,12,14,14,15,15,19,19,25,25,26,26,34,34],"right_children":[2,4,6,8,10,12,14,16,18,20,22,24,26,-1,28,30,-1,-1,-1,32,-1,-1,-1,-1,-1,34,36,-1,-1,-1,-1,-1,-1,-1,38,-1,-1,-1,-1],"split_conditions":[9.180725E-1,1.710265E-1,8.040539E-2,1.933377E-3,-4.8686516E-2,9.643829E-1,-6.850892E-1,-1.797689E-1,-3.824622E-2,1.2934892E0,-7.448212E-1,1.1924063E0,-1.1564857E-1,-1.9565012E-1,-2.9718933E-1,1.2366939E0,-3.0999243E-1,5.0272405E-1,5.908486E-3,-3.8432547E-1,2.9288365E-2,4.1668037E-1,-2.4069576E-1,-4.3761328E-1,5.908486E-3,7.486547E-1,9.639265E-1,5.908486E-3,4.5098636E-1,-1.35212345E-2,3.6669606E-1,5.908486E-3,5.5125153E-1,2.797564E-1,-4.7581646E-1,-3.281047E-1,-4.3004103E-2,-1.9565012E-1,7.6555284E-3],"split_indices":[11,3,13,2,13,9,3,4,3,3,6,4,4,0,5,0,0,0,0,13,0,0,0,0,0,8,2,0,0,0,0,0,0,0,3,0,0,0,0],"split_type":[0,0,0,0,0,0,0,0,0,0,0,0,0,0,0,0,0,0,0,0,0,0,0,0,0,0,0,0,0,0,0,0,0,0,0,0,0,0,0],"sum_hessian":[5.502407E1,2.572554E1,2.929853E1,1.0004376E1,1.5721163E1,2.501094E1,4.28759E0,6.907784E0,3.0965927E0,1.2386371E1,3.3347921E0,1.4530166E1,1.0480776E1,1.6673961E0,2.620194E0,3.5729916E0,3.3347921E0,1.9055955E0,1.1909972E0,1.0718975E1,1.6673961E0,1.1909972E0,2.143795E0,1.3339169E1,1.1909972E0,5.240388E0,5.240388E0,1.1909972E0,1.4291966E0,1.9055955E0,1.6673961E0,1.1909972E0,9.527978E0,1.1909972E0,4.0493903E0,3.811191E0,1.4291966E0,1.6673961E0,2.3819945E0],"tree_param":{"num_deleted":"0","num_feature":"14","num_nodes":"39","size_leaf_vector":"1"}},{"base_weights":[-3.325122E-3,6.527434E-1,-6.31756E-1,8.576572E-1,1.16474085E-1,-8.1185025E-1,3.0340418E-1,3.3726573E-1,1.2443475E0,-8.100392E-1,8.2469904E-1,1.8164176E-1,-9.547714E-1,-1.6501118E-1,8.1841075E-1,7.7088183E-1,-5.2346265E-1,9.199378E-2,1.3865368E0,-1.2225695E-2,-3.2730454E-1,4.8434976E-3,3.5305047E-1,3.038026E-1,-1.629449E-1,-1.2056398E0,-5.1754105E-1,4.9409103E-3,3.583078E-1,1.0855247E0,-7.330397E-2,-3.0697247E-1,2.9840663E-2,1.5289303E0,7.719985E-2,-3.786985E-1,-9.435011E-2,-7.1590006E-1,1.1474254E-1,1.0154614E-2,4.652033E-1,5.0107515E-1,1.2397843E-1,6.8755765E-3,-3.1508273E-1],"categories":[],"categories_nodes":[],"categories_segments":[],"categories_sizes":[],"default_left":[0,0,0,0,0,0,0,0,0,0,0,0,0,0,0,0,0,0,0,0,0,0,0,0,0,0,0,0,0,0,0,0,0,0,0,0,0,0,0,0,0,0,0,0,0],"id":1,"left_children":[1,3,5,7,9,11,13,15,17,19,21,23,25,-1,27,29,31,-1,33,-1,-1,-1,-1,-1,-1,35,37,-1,-1,39,-1,-1,-1,41,-1,-1,-1,43,-1,-1,-1,-1,-1,-1,-1],"loss_changes":[2.2737993E1,2.8653698E0,4.9898853E0,3.4775038E0,6.3226175E0,3.565508E0,2.7691975E0,3.996904E0,1.006649E0,8.7155414E-1,1.5126765E0,2.8657465E0,1.6843777E0,0E0,1.093571E0,2.4395986E0,1.2913644E0,0E0,1.060257E0,0E0,0E0,0E0,0E0,0E0,0E0,2.4053001E-1,1.9563677E0,0E0,0E0,2.5794225E0,0E0,0E0,0E0,5.4366875E-1,0E0,0E0,0E0,2.0179224E0,0E0,0E0,0E0,0E0,0E0,0E0,0E0],"parents":[2147483647,0,0,1,1,2,2,3,3,4,4,5,5,6,6,7,7,8,8,9,9,10,10,11,11,12,12,14,14,15,15,16,16,18,18,25,25,26,26,29,29,33,33,37,37],"right_children":[2,4,6,8,10,12,14,16,18,20,22,24,26,-1,28,30,32,-1,34,-1,-1,-1,-1,-1,-1,36,38,-1,-1,40,-1,-1,-1,42,-1,-1,-1,44,-1,-1,-1,-1,-1,-1,-1],"split_conditions":[9.180725E-1,3.0754566E-1,8.040539E-2,-6.03766E-1,2.1869737E-1,-8.5317165E-1,-6.850892E-1,-1.8618543E-1,-8.337963E-1,-3.3842614E-1,-3.18731E-1,-9.748611E-1,6.7683555E-2,-1.6501118E-1,-2.9718933E-1,-4.2342618E-1,-5.131947E-1,9.199378E-2,1.6146822E0,-1.2225695E-2,-3.2730454E-1,4.8434976E-3,3.5305047E-1,3.038026E-1,-1.629449E-1,1.6947258E0,1.2845908E0,4.9409103E-3,3.583078E-1,-5.2070576E-1,-7.330397E-2,-3.0697247E-1,2.9840663E-2,1.3315388E0,7.719985E-2,-3.786985E-1,-9.435011E-2,-2.8965807E-1,1.1474254E-1,1.0154614E-2,4.652033E-1,5.0107515E-1,1.2397843E-1,6.8755765E-3,-3.1508273E-1],"split_indices":[11,4,13,2,6,2,3,6,4,13,2,4,5,0,5,4,4,0,5,0,0,0,0,0,0,6,2,0,0,7,0,0,0,3,0,0,0,13,0,0,0,0,0,0,0],"split_type":[0,0,0,0,0,0,0,0,0,0,0,0,0,0,0,0,0,0,0,0,0,0,0,0,0,0,0,0,0,0,0,0,0,0,0,0,0,0,0,0,0,0,0,0,0],"sum_hessian":[5.314979E1,2.5984177E1,2.7165615E1,1.8366755E1,7.617422E0,2.2889406E1,4.2762084E0,8.62789E0,9.738864E0,3.237848E0,4.379574E0,2.8446164E0,2.004479E1,1.5837245E0,2.692484E0,5.80689E0,2.8209996E0,1.6979469E0,8.040917E0,1.17255E0,2.065298E0,1.6459917E0,2.7335825E0,1.1401472E0,1.7044691E0,1.1620106E1,8.424685E0,1.1925172E0,1.4999666E0,4.380141E0,1.4267492E0,1.2086641E0,1.6123354E0,6.8261456E0,1.2147717E0,1.0533502E1,1.0866044E0,7.0708704E0,1.3538142E0,1.6721971E0,2.707944E0,5.617501E0,1.208645E0,2.4932892E0,4.5775814E0],"tree_param":{"num_deleted":"0","num_feature":"14","num_nodes":"45","size_leaf_vector":"1"}},{"base_weights":[1.6490167E-3,5.035585E-1,-5.103287E-1,2.3452519E-1,9.396361E-1,-8.4353495E-1,-8.4310725E-2,-6.5424286E-2,1.0443239E0,1.1369255E0,-5.1237006E-2,-9.961449E-1,1.5372203E-1,2.4212144E-1,-3.2080966E-1,-4.309187E-1,7.0936495E-1,3.6916617E-1,1.0633869E-1,1.3676255E0,3.6849223E-2,-3.6033216E-1,-2.9589283E-1,-5.3586566E-1,1.98514E-1,1.581931E-1,-9.495209E-1,-2.9995428E-2,2.9782742E-1,8.755793E-2,4.594609E-1,8.768092E-2,-1.9268093E-1,-2.8797293E-1,-2.130968E-1,2.838925E-1,-2.3070604E-1,1.779116E-1,-1.9036119E-1,-2.8328191E-2,-3.6355475E-1,1.3128334E-1,-1.420824E-1],"categories":[],"categories_nodes":[],"categories_segments":[],"categories_sizes":[],"default_left":[0,0,0,0,0,0,0,0,0,0,0,0,0,0,0,0,0,0,0,0,0,0,0,0,0,0,0,0,0,0,0,0,0,0,0,0,0,0,0,0,0,0,0],"id":2,"left_children":[1,3,5,7,9,11,13,15,17,19,-1,21,-1,-1,23,25,27,-1,-1,29,-1,-1,31,33,35,37,39,-1,-1,-1,-1,-1,-1,-1,41,-1,-1,-1,-1,-1,-1,-1,-1],"loss_changes":[1.34130745E1,2.871749E0,3.597103E0,4.3513055E0,2.324378E0,3.4879713E0,2.8839788E0,4.215826E0,1.836772E-1,1.7942257E0,0E0,1.5496302E0,0E0,0E0,1.2853928E0,3.2066321E0,1.2010694E0,0E0,0E0,7.404375E-1,0E0,0E0,1.0703036E0,8.5420656E-1,3.4923775E0,2.2863312E0,1.1110697E0,0E0,0E0,0E0,0E0,0E0,0E0,0E0,1.1697148E0,0E0,0E0,0E0,0E0,0E0,0E0,0E0,0E0],"parents":[2147483647,0,0,1,1,2,2,3,3,4,4,5,5,6,6,7,7,8,8,9,9,11,11,14,14,15,15,16,16,19,19,22,22,23,23,24,24,25,25,26,26,34,34],"right_children":[2,4,6,8,10,12,14,16,18,20,-1,22,-1,-1,24,26,28,-1,-1,30,-1,-1,32,34,36,38,40,-1,-1,-1,-1,-1,-1,-1,42,-1,-1,-1,-1,-1,-1,-1,-1],"split_conditions":[9.180725E-1,6.656711E-1,9.643829E-1,-1.0386418E-1,4.486104E-1,1.8997297E0,-9.62037E-1,-1.0495475E-1,1.1100152E0,6.0763276E-1,-5.1237006E-2,3.7084064E-1,1.5372203E-1,2.4212144E-1,6.4326215E-1,-4.8754653E-1,-4.7319096E-1,3.6916617E-1,1.0633869E-1,-1.1382066E0,3.6849223E-2,-3.6033216E-1,7.7820575E-1,-6.660644E-1,4.999067E-1,-1.8618543E-1,-5.115444E-1,-2.9995428E-2,2.9782742E-1,8.755793E-2,4.594609E-1,8.768092E-2,-1.9268093E-1,-2.8797293E-1,-4.4741493E-1,2.838925E-1,-2.3070604E-1,1.779116E-1,-1.9036119E-1,-2.8328191E-2,-3.6355475E-1,1.3128334E-1,-1.420824E-1],"split_indices":[11,3,9,7,4,6,4,2,7,2,0,5,0,0,2,4,6,0,0,2,0,0,5,3,4,6,7,0,0,0,0,0,0,0,7,0,0,0,0,0,0,0,0],"split_type":[0,0,0,0,0,0,0,0,0,0,0,0,0,0,0,0,0,0,0,0,0,0,0,0,0,0,0,0,0,0,0,0,0,0,0,0,0,0,0,0,0,0,0],"sum_hessian":[5.019771E1,2.5356398E1,2.4841312E1,1.6632788E1,8.723611E0,1.3389099E1,1.1452212E1,1.2807937E1,3.8248506E0,7.3872538E0,1.3363569E0,1.227312E1,1.1159793E0,1.8954691E0,9.556744E0,9.004183E0,3.8037543E0,2.3946419E0,1.4302088E0,5.7341537E0,1.6531001E0,8.940889E0,3.3322296E0,6.735618E0,2.8211255E0,4.540881E0,4.463301E0,1.1543117E0,2.6494424E0,1.1258262E0,4.6083274E0,1.2929518E0,2.0392778E0,2.0579548E0,4.6776633E0,1.603635E0,1.2174904E0,3.0950317E0,1.4458495E0,1.3670802E0,3.096221E0,1.1429563E0,3.534707E0],"tree_param":{"num_deleted":"0","num_feature":"14","num_nodes":"43","size_leaf_vector":"1"}},{"base_weights":[5.967667E-3,4.0768734E-1,-4.2095044E-1,1.921856E-1,7.5234026E-1,-5.810925E-1,3.0673754E-1,-6.1655406E-2,8.764567E-1,3.5007367E-1,1.6029823E-1,-8.942794E-1,-1.8654896E-1,-1.1665795E-1,6.875111E-1,-3.654072E-1,5.783217E-1,3.132135E-1,8.8020295E-2,4.3718553E-1,-1.3679564E-1,-1.0239519E0,3.5757646E-2,6.0833603E-2,-2.7110574E-1,4.138834E-2,2.9251328E-1,1.0953591E-1,-8.038324E-1,-1.7843736E-2,2.5788432E-1,2.4236123E-1,3.8845309E-3,-8.33161E-2,-3.2760122E-1,-1.9130026E-1,4.2173514E-1,1.5925568E-1,-1.9885762E-1,-2.3536513E-2,-3.1406778E-1,2.2797559E-1,-6.61384E-2],"categories":[],"categories_nodes":[],"categories_segments":[],"categories_sizes":[],"default_left":[0,0,0,0,0,0,0,0,0,0,0,0,0,0,0,0,0,0,0,0,0,0,0,0,0,0,0,0,0,0,0,0,0,0,0,0,0,0,0,0,0,0,0],"id":3,"left_children":[1,3,5,7,9,11,13,15,17,-1,19,21,23,-1,25,27,29,-1,-1,31,-1,33,-1,35,-1,-1,-1,37,39,-1,-1,-1,-1,-1,-1,-1,41,-1,-1,-1,-1,-1,-1],"loss_changes":[8.355402E0,1.7191362E0,2.9314256E0,2.9690454E0,2.0981665E0,2.2686205E0,1.5694178E0,2.7725544E0,1.4381981E-1,0E0,1.0514945E0,1.5314054E0,1.8264883E0,0E0,4.2456484E-1,2.0761085E0,8.814126E-1,0E0,0E0,6.116865E-1,0E0,1.8484592E-1,0E0,2.3767488E0,0E0,0E0,0E0,2.1296606E0,8.143282E-1,0E0,0E0,0E0,0E0,0E0,0E0,0E0,1.4955602E0,0E0,0E0,0E0,0E0,0E0,0E0],"parents":[2147483647,0,0,1,1,2,2,3,3,4,4,5,5,6,6,7,7,8,8,10,10,11,11,12,12,14,14,15,15,16,16,19,19,21,21,23,23,27,27,28,28,36,36],"right_children":[2,4,6,8,10,12,14,16,18,-1,20,22,24,-1,26,28,30,-1,-1,32,-1,34,-1,36,-1,-1,-1,38,40,-1,-1,-1,-1,-1,-1,-1,42,-1,-1,-1,-1,-1,-1],"split_conditions":[9.180725E-1,6.656711E-1,8.040539E-2,-1.0386418E-1,1.1032413E0,9.643829E-1,-6.850892E-1,-1.0495475E-1,1.1100152E0,3.5007367E-1,2.4342532E-1,1.1924063E0,9.3688256E-1,-1.1665795E-1,-5.6813663E-1,-4.8754653E-1,-4.1076952E-1,3.132135E-1,8.8020295E-2,9.643829E-1,-1.3679564E-1,-8.5317165E-1,3.5757646E-2,-7.805159E-1,-2.7110574E-1,4.138834E-2,2.9251328E-1,-9.745457E-2,-5.115444E-1,-1.7843736E-2,2.5788432E-1,2.4236123E-1,3.8845309E-3,-8.33161E-2,-3.2760122E-1,-1.9130026E-1,-1.1564857E-1,1.5925568E-1,-1.9885762E-1,-2.3536513E-2,-3.1406778E-1,2.2797559E-1,-6.61384E-2],"split_indices":[11,3,13,7,3,9,3,2,7,0,4,4,5,0,2,4,7,0,0,9,0,2,0,5,0,0,0,13,7,0,0,0,0,0,0,0,4,0,0,0,0,0,0],"split_type":[0,0,0,0,0,0,0,0,0,0,0,0,0,0,0,0,0,0,0,0,0,0,0,0,0,0,0,0,0,0,0,0,0,0,0,0,0,0,0,0,0,0,0],"sum_hessian":[4.671848E1,2.4092789E1,2.262569E1,1.5782228E1,8.310561E0,1.8709705E1,3.9159844E0,1.2175451E1,3.6067767E0,4.3167806E0,3.9937809E0,9.724122E0,8.985584E0,1.3777938E0,2.5381906E0,8.547561E0,3.6278908E0,2.1874049E0,1.4193717E0,2.9562092E0,1.0375718E0,8.611898E0,1.1122233E0,7.3613825E0,1.6242013E0,1.3801594E0,1.1580312E0,4.4629917E0,4.084569E0,1.3516717E0,2.2762191E0,1.0950754E0,1.8611338E0,1.1443565E0,7.4675417E0,2.2465193E0,5.1148634E0,3.0901394E0,1.3728526E0,1.3571458E0,2.727423E0,3.2304058E0,1.8844576E0],"tree_param":{"num_deleted":"0","num_feature":"14","num_nodes":"43","size_leaf_vector":"1"}},{"base_weights":[5.5580903E-3,3.3687302E-1,-3.5683438E-1,1.9313063E-1,7.3605233E-1,-5.039832E-1,2.6752648E-1,3.4667674E-1,-4.1952935E-1,2.9325023E-1,1.903872E-2,2.0036042E-1,-6.344807E-1,2.5544208E-1,-1.9359702E-1,5.173464E-1,-3.949069E-1,-2.393379E-1,1.9287053E-2,-1.2276089E-1,1.9877371E-1,-7.630847E-1,-2.9948667E-2,-1.6973785E-1,9.880553E-2,6.824122E-1,-9.2676945E-2,-1.9776441E-1,2.128436E-2,-2.841007E-1,-2.7800336E-1,2.4967922E-1,-2.3871852E-1,-7.603714E-2,2.5026375E-1,-1.4252678E-1,1.2936364E-1,-2.0931694E-1,1.5229104E-1],"categories":[],"categories_nodes":[],"categories_segments":[],"categories_sizes":[],"default_left":[0,0,0,0,0,0,0,0,0,0,0,0,0,0,0,0,0,0,0,0,0,0,0,0,0,0,0,0,0,0,0,0,0,0,0,0,0,0,0],"id":4,"left_children":[1,3,5,7,9,11,13,15,17,-1,-1,19,21,-1,23,25,27,-1,-1,-1,-1,29,31,-1,-1,33,35,-1,-1,37,-1,-1,-1,-1,-1,-1,-1,-1,-1],"loss_changes":[5.434212E0,1.2140143E0,2.1214876E0,1.9077204E0,8.964062E-1,1.7674627E0,1.4512894E0,2.169466E0,8.211444E-1,0E0,0E0,1.2712405E0,1.1663852E0,0E0,8.6451614E-1,1.3777893E0,4.7426808E-1,0E0,0E0,0E0,0E0,7.218914E-1,3.1211653E0,0E0,0E0,1.6880918E0,9.382426E-1,0E0,0E0,1.8746631E0,0E0,0E0,0E0,0E0,0E0,0E0,0E0,0E0,0E0],"parents":[2147483647,0,0,1,1,2,2,3,3,4,4,5,5,6,6,7,7,8,8,11,11,12,12,14,14,15,15,16,16,21,21,22,22,25,25,26,26,29,29],"right_children":[2,4,6,8,10,12,14,16,18,-1,-1,20,22,-1,24,26,28,-1,-1,-1,-1,30,32,-1,-1,34,36,-1,-1,38,-1,-1,-1,-1,-1,-1,-1,-1,-1],"split_conditions":[9.180725E-1,4.954527E-1,8.040539E-2,3.0754566E-1,1.4897219E0,-8.5317165E-1,-2.2296177E-1,3.4432188E-3,-6.935702E-1,2.9325023E-1,1.903872E-2,-1.922143E-2,1.4983672E0,2.5544208E-1,2.6078963E0,5.1718302E-2,-4.618984E-1,-2.393379E-1,1.9287053E-2,-1.2276089E-1,1.9877371E-1,-2.8965807E-1,-2.8709126E-1,-1.6973785E-1,9.880553E-2,-3.8432547E-1,9.129934E-1,-1.9776441E-1,2.128436E-2,1.2366939E0,-2.7800336E-1,2.4967922E-1,-2.3871852E-1,-7.603714E-2,2.5026375E-1,-1.4252678E-1,1.2936364E-1,-2.0931694E-1,1.5229104E-1],"split_indices":[11,6,13,4,6,2,7,6,6,0,0,3,2,0,7,13,4,0,0,0,0,13,7,0,0,13,3,0,0,0,0,0,0,0,0,0,0,0,0],"split_type":[0,0,0,0,0,0,0,0,0,0,0,0,0,0,0,0,0,0,0,0,0,0,0,0,0,0,0,0,0,0,0,0,0,0,0,0,0,0,0],"sum_hessian":[4.3259014E1,2.2635279E1,2.0623735E1,1.7733395E1,4.901884E0,1.6846231E1,3.7775035E0,1.4526803E1,3.206592E0,3.2734373E0,1.6284468E0,2.549621E0,1.4296611E1,1.2932578E0,2.4842458E0,1.205485E1,2.471953E0,1.4354049E0,1.7711871E0,1.149019E0,1.4006021E0,1.1572486E1,2.7241247E0,1.4034485E0,1.0807974E0,9.39421E0,2.6606395E0,1.3123258E0,1.1596271E0,3.6429453E0,7.9295406E0,1.2405434E0,1.4835814E0,1.2176361E0,8.176574E0,1.5918322E0,1.0688072E0,2.4708562E0,1.1720891E0],"tree_param":{"num_deleted":"0","num_feature":"14","num_nodes":"39","size_leaf_vector":"1"}},{"base_weights":[4.6774786E-4,2.5440466E-1,-2.8623652E-1,7.9468675E-2,5.433685E-1,-5.6447023E-1,-5.1042093E-3,-1.3637821E-1,6.851586E-1,2.7553815E-1,6.376124E-2,-7.6003885E-1,1.3568628E-1,2.6903552E-1,-4.9362886E-1,-3.6973095E-1,3.9285332E-1,2.6670662E-1,4.3990728E-2,1.4723991E-1,-2.3128657E-1,-2.9368964E-1,-1.8979686E-1,4.8246184E-1,-1.4336589E-1,7.308319E-2,-2.5998175E-1,-6.72234E-2,-2.4949369E-1,-5.1362887E-2,1.9143513E-1,8.095515E-2,-1.7680393E-1,9.705302E-2,-1.684274E-1,-3.7982855E-2,3.1021586E-1,5.7497896E-2,-2.193479E-1,1.9581822E-1,-1.7253274E-1],"categories":[],"categories_nodes":[],"categories_segments":[],"categories_sizes":[],"default_left":[0,0,0,0,0,0,0,0,0,0,0,0,0,0,0,0,0,0,0,0,0,0,0,0,0,0,0,0,0,0,0,0,0,0,0,0,0,0,0,0,0],"id":5,"left_children":[1,3,5,7,9,11,13,15,17,-1,19,21,-1,23,25,27,29,-1,-1,-1,31,-1,33,35,-1,-1,-1,37,-1,-1,-1,-1,-1,-1,-1,39,-1,-1,-1,-1,-1],"loss_changes":[3.094119E0,1.0960349E0,1.5585792E0,2.0818377E0,1.4394596E0,2.3369365E0,1.5977383E0,1.6330522E0,3.2656372E-1,0E0,7.0935714E-1,9.1027784E-1,0E0,1.4506963E0,1.3892708E0,1.1843464E0,6.863294E-1,0E0,0E0,0E0,7.8283393E-1,0E0,8.828853E-1,1.8910527E0,0E0,0E0,0E0,1.2490029E0,0E0,0E0,0E0,0E0,0E0,0E0,0E0,1.9645805E0,0E0,0E0,0E0,0E0,0E0],"parents":[2147483647,0,0,1,1,2,2,3,3,4,4,5,5,6,6,7,7,8,8,10,10,11,11,13,13,14,14,15,15,16,16,20,20,22,22,23,23,27,27,35,35],"right_children":[2,4,6,8,10,12,14,16,18,-1,20,22,-1,24,26,28,30,-1,-1,-1,32,-1,34,36,-1,-1,-1,38,-1,-1,-1,-1,-1,-1,-1,40,-1,-1,-1,-1,-1],"split_conditions":[9.180725E-1,6.656711E-1,9.643829E-1,-1.0386418E-1,1.1032413E0,1.2052304E0,2.3943614E-2,-1.0495475E-1,1.1100152E0,2.7553815E-1,-4.6806586E-1,3.7084064E-1,1.3568628E-1,8.859941E-1,-3.8786614E-1,-4.153502E-1,-4.7319096E-1,2.6670662E-1,4.3990728E-2,1.4723991E-1,1.2934892E0,-2.9368964E-1,7.7820575E-1,-3.604388E-1,-1.4336589E-1,7.308319E-2,-2.5998175E-1,-6.8069785E-3,-2.4949369E-1,-5.1362887E-2,1.9143513E-1,8.095515E-2,-1.7680393E-1,9.705302E-2,-1.684274E-1,-9.62037E-1,3.1021586E-1,5.7497896E-2,-2.193479E-1,1.9581822E-1,-1.7253274E-1],"split_indices":[11,3,9,7,3,4,6,2,7,0,6,5,0,5,7,7,6,0,0,0,3,0,5,6,0,0,0,6,0,0,0,0,0,0,0,4,0,0,0,0,0],"split_type":[0,0,0,0,0,0,0,0,0,0,0,0,0,0,0,0,0,0,0,0,0,0,0,0,0,0,0,0,0,0,0,0,0,0,0,0,0,0,0,0,0],"sum_hessian":[4.0498627E1,2.1536333E1,1.8962294E1,1.4209219E1,7.327114E0,9.023743E0,9.938551E0,1.1047213E1,3.1620057E0,3.5980892E0,3.729025E0,7.779819E0,1.2439239E0,6.653931E0,3.2846198E0,7.8758955E0,3.1713176E0,1.8215761E0,1.3404294E0,1.2526048E0,2.47642E0,5.1036706E0,2.6761487E0,5.4505506E0,1.2033806E0,1.2199908E0,2.064629E0,5.4513454E0,2.42455E0,1.0525582E0,2.1187592E0,1.1346827E0,1.3417373E0,1.1782211E0,1.4979275E0,3.28355E0,2.1670008E0,4.4338284E0,1.0175171E0,1.3422632E0,1.9412867E0],"tree_param":{"num_deleted":"0","num_feature":"14","num_nodes":"41","size_leaf_vector":"1"}},{"base_weights":[-4.1560677E-4,-2.3153922E-1,2.2985259E-1,-7.2241867E-1,3.4224723E-2,3.820295E-1,-2.115956E-1,-2.4207549E-3,-3.1026143E-1,2.2065294E-1,-9.466631E-2,5.338045E-1,-2.6066008E-1,2.1178834E-1,-2.3851524E-1,-1.08472995E-1,1.02728195E-1,-4.6400794E-1,2.4595377E-1,5.4461572E-2,2.726381E-1,6.467148E-2,-2.061309E-1,9.48179E-2,-7.632889E-1,5.5778795E-1,-1.7210944E-1,2.9992628E-1,-1.3906443E-1,1.5372327E-1,-1.13240264E-1,-2.793784E-1,-4.2622738E-2,-1.9192845E-2,2.30074E-1,1.8298194E-1,-1.2966704E-1],"categories":[],"categories_nodes":[],"categories_segments":[],"categories_sizes":[],"default_left":[0,0,0,0,0,0,0,0,0,0,0,0,0,0,0,0,0,0,0,0,0,0,0,0,0,0,0,0,0,0,0,0,0,0,0,0,0],"id":6,"left_children":[1,3,5,7,9,11,13,15,-1,-1,17,19,21,-1,-1,-1,-1,23,25,27,-1,-1,-1,29,31,33,-1,35,-1,-1,-1,-1,-1,-1,-1,-1,-1],"loss_changes":[2.11103E0,2.607172E0,1.4157054E0,1.5684719E0,1.3167397E0,1.6152935E0,3.6328177E0,5.0987345E-1,0E0,0E0,1.6918439E0,2.2099814E0,8.717042E-1,0E0,0E0,0E0,0E0,1.1366001E0,2.1545963E0,9.7584355E-1,0E0,0E0,0E0,8.065466E-1,3.116269E-1,7.9107356E-1,0E0,1.4149444E0,0E0,0E0,0E0,0E0,0E0,0E0,0E0,0E0,0E0],"parents":[2147483647,0,0,1,1,2,2,3,3,4,4,5,5,6,6,7,7,10,10,11,11,12,12,17,17,18,18,19,19,23,23,24,24,25,25,27,27],"right_children":[2,4,6,8,10,12,14,16,-1,-1,18,20,22,-1,-1,-1,-1,24,26,28,-1,-1,-1,30,32,34,-1,36,-1,-1,-1,-1,-1,-1,-1,-1,-1],"split_conditions":[1.710265E-1,-2.7244583E-1,-8.3111025E-2,-4.1060212E-1,-1.2675812E0,1.2934892E0,-7.448212E-1,-2.886874E-1,-3.1026143E-1,2.2065294E-1,-2.695374E-1,-2.8236145E-1,-3.9777806E-1,2.1178834E-1,-2.3851524E-1,-1.08472995E-1,1.02728195E-1,-1.1466683E-1,-9.53206E-2,-3.4664005E-1,2.726381E-1,6.467148E-2,-2.061309E-1,-8.850926E-1,4.294859E-1,-1.7777842E-1,-1.7210944E-1,5.9819303E-2,-1.3906443E-1,1.5372327E-1,-1.13240264E-1,-2.793784E-1,-4.2622738E-2,-1.9192845E-2,2.30074E-1,1.8298194E-1,-1.2966704E-1],"split_indices":[3,13,13,4,6,3,6,6,0,0,4,4,4,0,0,0,0,13,3,7,0,0,0,4,2,13,0,6,0,0,0,0,0,0,0,0,0],"split_type":[0,0,0,0,0,0,0,0,0,0,0,0,0,0,0,0,0,0,0,0,0,0,0,0,0,0,0,0,0,0,0,0,0,0,0,0,0],"sum_hessian":[3.7665806E1,1.879523E1,1.8870573E1,5.9981227E0,1.2797109E1,1.4133161E1,4.737413E0,2.1170495E0,3.8810735E0,1.2561357E0,1.1540973E1,1.1570209E1,2.5629523E0,1.7598544E0,2.9775586E0,1.0132498E0,1.1037997E0,5.3632455E0,6.1777267E0,5.581148E0,5.98906E0,1.4444011E0,1.1185511E0,2.1088054E0,3.2544403E0,4.7065973E0,1.4711294E0,4.0723987E0,1.5087495E0,1.074116E0,1.0346893E0,2.1688852E0,1.085555E0,1.359288E0,3.3473096E0,2.9782434E0,1.0941553E0],"tree_param":{"num_deleted":"0","num_feature":"14","num_nodes":"37","size_leaf_vector":"1"}},{"base_weights":[-1.2329634E-2,2.0205542E-1,-2.505115E-1,-2.0534255E-1,2.972049E-1,-3.8867757E-1,2.5810242E-1,-4.6096098E-1,8.553819E-2,4.7546408E-1,-2.527883E-2,-1.22755766E-1,-6.8930763E-1,-9.232232E-2,5.634177E-1,-2.210498E-1,-1.8477512E-3,6.029263E-1,-7.27988E-2,-4.3963006E-1,5.059673E-1,-4.1530928E-1,2.5193664E-1,-8.4277797E-1,2.1864226E-2,2.541625E-2,2.3956831E-1,4.0717594E-2,8.307269E-1,-3.0514893E-1,1.0483966E-1,2.3820977E-1,-1.6684078E-2,6.71193E-2,-5.5160505E-1,-2.7770108E-1,-7.4824266E-2,1.6708638E-1,-1.1625614E-1,8.493808E-2,3.1214705E-1,-2.6379398E-1,-2.5151936E-2],"categories":[],"categories_nodes":[],"categories_segments":[],"categories_sizes":[],"default_left":[0,0,0,0,0,0,0,0,0,0,0,0,0,0,0,0,0,0,0,0,0,0,0,0,0,0,0,0,0,0,0,0,0,0,0,0,0,0,0,0,0,0,0],"id":7,"left_children":[1,3,5,7,9,11,13,15,-1,17,19,21,23,-1,25,-1,-1,27,-1,29,31,33,-1,35,-1,-1,-1,37,39,-1,-1,-1,-1,-1,41,-1,-1,-1,-1,-1,-1,-1,-1],"loss_changes":[1.920009E0,8.2936144E-1,1.3503978E0,6.760758E-1,9.5919657E-1,1.0656052E0,9.337102E-1,4.017207E-1,0E0,1.1222143E0,1.7225878E0,2.8412611E0,8.2602215E-1,0E0,2.9387856E-1,0E0,0E0,1.16256E0,0E0,2.3441951E0,6.024689E-1,7.72925E-1,0E0,4.065466E-2,0E0,0E0,0E0,1.0437893E0,4.631076E-1,0E0,0E0,0E0,0E0,0E0,9.126866E-1,0E0,0E0,0E0,0E0,0E0,0E0,0E0,0E0],"parents":[2147483647,0,0,1,1,2,2,3,3,4,4,5,5,6,6,7,7,9,9,10,10,11,11,12,12,14,14,17,17,19,19,20,20,21,21,23,23,27,27,28,28,34,34],"right_children":[2,4,6,8,10,12,14,16,-1,18,20,22,24,-1,26,-1,-1,28,-1,30,32,34,-1,36,-1,-1,-1,38,40,-1,-1,-1,-1,-1,42,-1,-1,-1,-1,-1,-1,-1,-1],"split_conditions":[9.180725E-1,-5.2070576E-1,8.040539E-2,4.3512365E-1,6.4270526E-1,2.3943614E-2,-6.850892E-1,-2.8556854E-1,8.553819E-2,1.1983653E0,1.3944536E0,-1.4518465E-1,1.4983672E0,-9.232232E-2,-5.6813663E-1,-2.210498E-1,-1.8477512E-3,-6.935702E-1,-7.27988E-2,6.656711E-1,-2.4949615E-1,-1.1287498E0,2.5193664E-1,1.5614733E0,2.1864226E-2,2.541625E-2,2.3956831E-1,-1.0062013E0,-6.3939536E-1,-3.0514893E-1,1.0483966E-1,2.3820977E-1,-1.6684078E-2,6.71193E-2,-2.695374E-1,-2.7770108E-1,-7.4824266E-2,1.6708638E-1,-1.1625614E-1,8.493808E-2,3.1214705E-1,-2.6379398E-1,-2.5151936E-2],"split_indices":[11,7,13,5,5,6,3,3,0,3,5,6,2,0,2,0,0,6,0,3,13,4,0,6,0,0,0,6,2,0,0,0,0,0,4,0,0,0,0,0,0,0,0],"split_type":[0,0,0,0,0,0,0,0,0,0,0,0,0,0,0,0,0,0,0,0,0,0,0,0,0,0,0,0,0,0,0,0,0,0,0,0,0,0,0,0,0,0,0],"sum_hessian":[3.560978E1,1.8820929E1,1.678885E1,3.3441787E0,1.547675E1,1.3387828E1,3.4010222E0,2.237976E0,1.1062027E0,9.661684E0,5.8150663E0,7.851301E0,5.536527E0,1.1891726E0,2.2118497E0,1.0070226E0,1.2309535E0,8.34154E0,1.3201438E0,3.3638499E0,2.4512165E0,6.457235E0,1.3940666E0,4.520556E0,1.0159708E0,1.1766863E0,1.0351634E0,2.745191E0,5.5963492E0,1.7754142E0,1.5884356E0,1.3465663E0,1.1046503E0,1.022342E0,5.4348927E0,3.4750564E0,1.0454997E0,1.1084241E0,1.636767E0,2.2007914E0,3.3955579E0,2.6785383E0,2.7563543E0],"tree_param":{"num_deleted":"0","num_feature":"14","num_nodes":"43","size_leaf_vector":"1"}},{"base_weights":[-7.4503003E-3,1.6869733E-1,-2.0552194E-1,2.5830725E-1,-2.50996E-1,-3.299605E-1,2.2876875E-1,-1.1482953E-1,3.3896753E-1,-1.3985096E-1,4.8551664E-2,-6.047107E-1,-7.048344E-2,2.0140843E-1,-1.5378529E-1,2.3935257E-1,1.977777E-1,-2.5436333E-1,-1.1402238E-2,1.2852904E-1,-1.1425311E-1,-1.3839291E-1,7.233558E-2,-1.7411994E-3,5.9199053E-1,-1.3496663E-1,1.685218E-1,1.1467032E-1,-8.933964E-2,3.6957707E-2,2.1485412E-1,1.291489E-1,-1.4907199E-1],"categories":[],"categories_nodes":[],"categories_segments":[],"categories_sizes":[],"default_left":[0,0,0,0,0,0,0,0,0,0,0,0,0,0,0,0,0,0,0,0,0,0,0,0,0,0,0,0,0,0,0,0,0],"id":8,"left_children":[1,3,5,7,9,11,13,-1,15,-1,-1,17,19,-1,21,-1,23,-1,-1,25,-1,-1,-1,27,29,31,-1,-1,-1,-1,-1,-1,-1],"loss_changes":[1.223939E0,7.6401246E-1,9.669419E-1,9.474052E-1,4.110641E-1,9.0064144E-1,8.252719E-1,0E0,7.865491E-1,0E0,0E0,8.3517647E-1,5.391593E-1,0E0,4.8781863E-1,0E0,9.822935E-1,0E0,0E0,7.1316105E-1,0E0,0E0,0E0,1.1688273E0,1.5602505E-1,1.0894785E0,0E0,0E0,0E0,0E0,0E0,0E0,0E0],"parents":[2147483647,0,0,1,1,2,2,3,3,4,4,5,5,6,6,8,8,11,11,12,12,14,14,16,16,19,19,23,23,24,24,25,25],"right_children":[2,4,6,8,10,12,14,-1,16,-1,-1,18,20,-1,22,-1,24,-1,-1,26,-1,-1,-1,28,30,32,-1,-1,-1,-1,-1,-1,-1],"split_conditions":[9.180725E-1,7.179927E-2,8.040539E-2,-3.8432547E-1,9.129934E-1,9.643829E-1,-2.2296177E-1,-1.1482953E-1,-8.850926E-1,-1.3985096E-1,4.8551664E-2,7.015963E-1,1.2800871E-1,2.0140843E-1,-3.9971727E-1,2.3935257E-1,4.954527E-1,-2.5436333E-1,-1.1402238E-2,6.4326215E-1,-1.1425311E-1,-1.3839291E-1,7.233558E-2,-4.3219018E-1,1.329769E-1,-3.513219E-1,1.685218E-1,1.1467032E-1,-8.933964E-2,3.6957707E-2,2.1485412E-1,1.291489E-1,-1.4907199E-1],"split_indices":[11,13,13,13,3,9,7,0,4,0,0,5,4,0,3,0,6,0,0,2,0,0,0,6,3,5,0,0,0,0,0,0,0],"split_type":[0,0,0,0,0,0,0,0,0,0,0,0,0,0,0,0,0,0,0,0,0,0,0,0,0,0,0,0,0,0,0,0,0],"sum_hessian":[3.308636E1,1.7590874E1,1.5495485E1,1.4812704E1,2.77817E0,1.2231104E1,3.2643816E0,1.2368736E0,1.357583E1,1.7413619E0,1.0368083E0,5.294483E0,6.9366207E0,1.1634235E0,2.100958E0,2.0999706E0,1.147586E1,3.3576071E0,1.9368759E0,4.5834465E0,2.3531742E0,1.0866175E0,1.0143408E0,8.280512E0,3.1953478E0,3.278054E0,1.3053924E0,3.478259E0,4.802253E0,1.0863829E0,2.108965E0,1.2054119E0,2.072642E0],"tree_param":{"num_deleted":"0","num_feature":"14","num_nodes":"33","size_leaf_vector":"1"}},{"base_weights":[-4.3102453E-4,-1.6739196E-1,1.6159235E-1,-5.829923E-1,4.944598E-2,2.591346E-1,-1.1666553E-1,2.0562296E-5,-2.5423717E-1,1.7635526E-1,-1.3102332E-1,4.3462348E-1,-5.642162E-2,-1.9483103E-1,4.8516786E-1,6.368937E-1,-8.683833E-2,1.2524946E-1,-3.326478E-1,1.178895E-1,-5.769349E-1,2.4381769E-1,2.4810478E-2,8.655466E-1,-3.829338E-3,-2.1733592E-1,4.0346835E-2,-2.1825087E-1,-4.2084016E-2,1.2135892E-1,-1.23143725E-1,8.317466E-2,2.9174876E-1,-5.370522E-2,5.1833626E-2],"categories":[],"categories_nodes":[],"categories_segments":[],"categories_sizes":[],"default_left":[0,0,0,0,0,0,0,0,0,0,0,0,0,0,0,0,0,0,0,0,0,0,0,0,0,0,0,0,0,0,0,0,0,0,0],"id":9,"left_children":[1,3,5,7,9,11,-1,-1,-1,13,-1,15,17,19,21,23,-1,-1,25,-1,27,-1,29,31,33,-1,-1,-1,-1,-1,-1,-1,-1,-1,-1],"loss_changes":[9.0527207E-1,1.5139648E0,1.01277E0,8.8338745E-1,8.021104E-1,8.567393E-1,0E0,0E0,0E0,1.2443829E0,0E0,1.6156317E0,9.5783293E-1,1.4101422E0,8.487432E-1,1.1681731E0,0E0,0E0,9.226705E-1,0E0,1.3452792E-1,0E0,7.3249304E-1,9.9345684E-2,1.2643464E-1,0E0,0E0,0E0,0E0,0E0,0E0,0E0,0E0,0E0,0E0],"parents":[2147483647,0,0,1,1,2,2,3,3,4,4,5,5,9,9,11,11,12,12,13,13,14,14,15,15,18,18,20,20,22,22,23,23,24,24],"right_children":[2,4,6,8,10,12,-1,-1,-1,14,-1,16,18,20,22,24,-1,-1,26,-1,28,-1,30,32,34,-1,-1,-1,-1,-1,-1,-1,-1,-1,-1],"split_conditions":[1.710265E-1,-2.7244583E-1,2.2677867E0,-4.1060212E-1,-3.824622E-2,2.3943614E-2,-1.1666553E-1,2.0562296E-5,-2.5423717E-1,-4.3625027E-1,-1.3102332E-1,2.8696838E-1,7.486547E-1,-1.1466683E-1,-2.962526E-1,8.859941E-1,-8.683833E-2,1.2524946E-1,2.127876E-1,1.178895E-1,1.5499184E-1,2.4381769E-1,1.2103587E0,-7.805159E-1,1.6099409E0,-2.1733592E-1,4.0346835E-2,-2.1825087E-1,-4.2084016E-2,1.2135892E-1,-1.23143725E-1,8.317466E-2,2.9174876E-1,-5.370522E-2,5.1833626E-2],"split_indices":[3,13,10,4,3,6,0,0,0,4,0,2,8,13,7,5,0,0,5,0,13,0,12,5,5,0,0,0,0,0,0,0,0,0,0],"split_type":[0,0,0,0,0,0,0,0,0,0,0,0,0,0,0,0,0,0,0,0,0,0,0,0,0,0,0,0,0,0,0,0,0,0,0],"sum_hessian":[3.1464758E1,1.5479941E1,1.59848175E1,4.7284994E0,1.0751442E1,1.4028315E1,1.9565023E0,1.78746E0,2.9410396E0,9.031293E0,1.7201489E0,8.772422E0,5.255893E0,4.2690635E0,4.762229E0,6.95108E0,1.821342E0,1.747051E0,3.5088422E0,1.6706512E0,2.5984123E0,2.335225E0,2.427004E0,4.864286E0,2.0867937E0,1.6087166E0,1.9001256E0,1.4368669E0,1.1615454E0,1.3339849E0,1.0930194E0,1.3008759E0,3.5634103E0,1.0407598E0,1.0460339E0],"tree_param":{"num_deleted":"0","num_feature":"14","num_nodes":"35","size_leaf_vector":"1"}},{"base_weights":[-6.913934E-3,-1.428696E-1,1.6960274E-1,-2.7881728E-3,-2.1870628E-1,2.6878503E-1,-2.5445205E-1,-4.090704E-1,1.9163299E-1,4.6983337E-1,3.2918103E-2,-1.0409782E-2,-1.05065666E-1,9.169862E-2,-6.4845324E-1,3.270537E-1,-1.1811929E-1,1.9985314E-1,-4.928377E-2,-3.009417E-1,1.5630113E-1,-2.4727456E-1,-5.8203902E-2,-2.2295004E-1,5.1981163E-1,-1.907471E-1,6.134117E-2,7.6040514E-2,-1.8548436E-1,2.2581021E-1,7.956779E-3],"categories":[],"categories_nodes":[],"categories_segments":[],"categories_sizes":[],"default_left":[0,0,0,0,0,0,0,0,0,0,0,0,0,0,0,0,0,0,0,0,0,0,0,0,0,0,0,0,0,0,0],"id":10,"left_children":[1,3,5,7,-1,9,11,13,15,17,19,-1,-1,-1,21,23,-1,-1,-1,25,-1,-1,-1,27,29,-1,-1,-1,-1,-1,-1],"loss_changes":[7.67362E-1,1.4788392E0,6.542852E-1,1.3075113E0,0E0,5.4296297E-1,5.4229185E-2,1.1144631E0,1.0170137E0,8.915639E-1,1.2150276E0,0E0,0E0,0E0,1.8616235E-1,1.1385635E0,0E0,0E0,0E0,8.899901E-1,0E0,0E0,0E0,7.6001203E-1,8.351071E-1,0E0,0E0,0E0,0E0,0E0,0E0],"parents":[2147483647,0,0,1,1,2,2,3,3,5,5,6,6,7,7,8,8,9,9,10,10,14,14,15,15,19,19,23,23,24,24],"right_children":[2,4,6,8,-1,10,12,14,16,18,20,-1,-1,-1,22,24,-1,-1,-1,26,-1,-1,-1,28,30,-1,-1,-1,-1,-1,-1],"split_conditions":[1.2366939E0,2.2677867E0,9.890926E-1,-2.6097098E-1,-2.1870628E-1,-1.1564857E-1,-6.3939536E-1,-4.6115696E-1,9.3688256E-1,2.5133902E-1,3.7562754E-2,-1.0409782E-2,-1.05065666E-1,9.169862E-2,-2.9167193E-1,-6.850892E-1,-1.1811929E-1,1.9985314E-1,-4.928377E-2,1.329769E-1,1.5630113E-1,-2.4727456E-1,-5.8203902E-2,-2.5044584E-1,-6.8069785E-3,-1.907471E-1,6.134117E-2,7.6040514E-2,-1.8548436E-1,2.2581021E-1,7.956779E-3],"split_indices":[0,10,3,13,0,4,2,7,5,2,2,0,0,0,7,3,0,0,0,3,0,0,0,7,6,0,0,0,0,0,0],"split_type":[0,0,0,0,0,0,0,0,0,0,0,0,0,0,0,0,0,0,0,0,0,0,0,0,0,0,0,0,0,0,0],"sum_hessian":[2.9965794E1,1.7035458E1,1.2930337E1,1.4560477E1,2.4749806E0,1.07760725E1,2.1542635E0,4.3552537E0,1.0205223E1,5.281923E0,5.49415E0,1.06736E0,1.0869036E0,1.0232451E0,3.3320084E0,8.646244E0,1.5589792E0,3.994514E0,1.287409E0,3.4902067E0,2.0039432E0,1.8158141E0,1.5161942E0,2.2031834E0,6.443061E0,1.9440597E0,1.546147E0,1.1618587E0,1.0413247E0,4.01951E0,2.4235513E0],"tree_param":{"num_deleted":"0","num_feature":"14","num_nodes":"31","size_leaf_vector":"1"}},{"base_weights":[-1.8881889E-2,1.1877985E-1,-1.7697763E-1,2.6735756E-1,-1.9105439E-1,-2.9130757E-1,2.0693298E-1,1.0013649E-1,2.11524E-1,1.0895866E-1,-1.9485144E-1,-7.1724705E-2,-5.5276155E-1,-6.3443385E-2,1.5904048E-1,-1.2784603E-1,4.897795E-1,-2.576006E-1,2.0078492E-1,-3.2123932E-1,1.8946746E-1,-2.082808E-1,-1.416123E-3,-1.843796E-1,9.3426004E-2,1.9705512E-1,5.2060418E-2,-1.8861182E-1,7.62267E-2,-9.270222E-4,-1.9089636E-1,9.732276E-2,-7.2231844E-2,-9.384841E-2,8.424666E-2],"categories":[],"categories_nodes":[],"categories_segments":[],"categories_sizes":[],"default_left":[0,0,0,0,0,0,0,0,0,0,0,0,0,0,0,0,0,0,0,0,0,0,0,0,0,0,0,0,0,0,0,0,0,0,0],"id":11,"left_children":[1,3,5,7,9,11,13,15,-1,17,-1,19,21,-1,-1,23,25,27,-1,29,-1,-1,-1,-1,31,-1,-1,-1,-1,33,-1,-1,-1,-1,-1],"loss_changes":[6.6299194E-1,8.0447996E-1,6.805368E-1,7.6956826E-1,8.805666E-1,6.0932046E-1,6.2968683E-1,9.039397E-1,0E0,1.0792398E0,0E0,1.4826574E0,3.8532758E-1,0E0,0E0,7.86363E-1,8.166224E-2,8.036921E-1,0E0,6.0960096E-1,0E0,0E0,0E0,0E0,5.0429064E-1,0E0,0E0,0E0,0E0,4.3932337E-1,0E0,0E0,0E0,0E0,0E0],"parents":[2147483647,0,0,1,1,2,2,3,3,4,4,5,5,6,6,7,7,9,9,11,11,12,12,15,15,16,16,17,17,19,19,24,24,29,29],"right_children":[2,4,6,8,10,12,14,16,-1,18,-1,20,22,-1,-1,24,26,28,-1,30,-1,-1,-1,-1,32,-1,-1,-1,-1,34,-1,-1,-1,-1,-1],"split_conditions":[9.180725E-1,-9.745457E-2,8.040539E-2,1.1850121E0,6.186607E-1,2.3943614E-2,-3.8998976E-1,-1.9499068E-1,2.11524E-1,1.4640488E-1,-1.9485144E-1,-1.4518465E-1,1.1777028E0,-6.3443385E-2,1.5904048E-1,-1.7141977E-1,-7.055557E-1,-4.2561913E-1,2.0078492E-1,-2.5044584E-1,1.8946746E-1,-2.082808E-1,-1.416123E-3,-1.843796E-1,-5.552604E-2,1.9705512E-1,5.2060418E-2,-1.8861182E-1,7.62267E-2,-2.695374E-1,-1.9089636E-1,9.732276E-2,-7.2231844E-2,-9.384841E-2,8.424666E-2],"split_indices":[11,13,13,5,5,6,2,13,0,5,0,6,2,0,0,3,4,2,0,7,0,0,0,0,5,0,0,0,0,4,0,0,0,0,0],"split_type":[0,0,0,0,0,0,0,0,0,0,0,0,0,0,0,0,0,0,0,0,0,0,0,0,0,0,0,0,0,0,0,0,0,0,0],"sum_hessian":[2.8497257E1,1.5366005E1,1.3131252E1,1.047833E1,4.887676E0,1.0303919E1,2.8273337E0,8.470971E0,2.0073583E0,3.4151263E0,1.4725493E0,6.29303E0,4.010889E0,1.3828288E0,1.4445049E0,5.7679796E0,2.7029912E0,2.3911333E0,1.0239931E0,5.0460076E0,1.2470219E0,2.9757195E0,1.0351695E0,1.2470837E0,4.520896E0,1.0639037E0,1.6390876E0,1.253407E0,1.1377262E0,2.999578E0,2.0464299E0,2.6905806E0,1.8303155E0,1.3712621E0,1.6283159E0],"tree_param":{"num_deleted":"0","num_feature":"14","num_nodes":"35","size_leaf_vector":"1"}},{"base_weights":[-1.2998909E-2,-6.2694736E-2,3.584549E-1,4.6959165E-2,-3.080146E-1,1.5349087E-1,1.3960912E-2,1.5747145E-1,-3.103099E-1,-2.0291425E-1,-1.2967976E-2,-2.0818181E-1,3.5729918E-1,4.449724E-2,-5.0389194E-1,-3.688928E-1,3.6533064E-1,-4.182942E-1,6.2030334E-2,4.534144E-1,-5.7868563E-2,-9.791245E-3,-2.0536326E-1,2.2899637E-2,-1.825151E-1,-2.5548315E-2,1.849354E-1,-1.9255097E-1,2.4756936E-2,-4.328715E-2,1.6563061E-1],"categories":[],"categories_nodes":[],"categories_segments":[],"categories_sizes":[],"default_left":[0,0,0,0,0,0,0,0,0,0,0,0,0,0,0,0,0,0,0,0,0,0,0,0,0,0,0,0,0,0,0],"id":12,"left_children":[1,3,5,7,9,-1,-1,11,13,-1,15,17,19,-1,21,23,25,27,-1,29,-1,-1,-1,-1,-1,-1,-1,-1,-1,-1,-1],"loss_changes":[5.368652E-1,6.985017E-1,1.4041165E-1,7.7697444E-1,8.593383E-1,0E0,0E0,1.1519797E0,4.9142975E-1,0E0,8.692088E-1,5.959545E-1,6.112318E-1,0E0,2.7798617E-1,3.9916116E-1,4.084681E-1,5.24289E-1,0E0,5.946131E-1,0E0,0E0,0E0,0E0,0E0,0E0,0E0,0E0,0E0,0E0,0E0],"parents":[2147483647,0,0,1,1,2,2,3,3,4,4,7,7,8,8,10,10,11,11,12,12,14,14,15,15,16,16,17,17,19,19],"right_children":[2,4,6,8,10,-1,-1,12,14,-1,16,18,20,-1,22,24,26,28,-1,30,-1,-1,-1,-1,-1,-1,-1,-1,-1,-1,-1],"split_conditions":[1.6947258E0,3.0754566E-1,7.486547E-1,9.3688256E-1,-2.3985402E-1,1.5349087E-1,1.3960912E-2,-2.8556854E-1,-2.294152E-1,-2.0291425E-1,1.115462E0,4.3512365E-1,1.3315388E0,4.449724E-2,-8.2097226E-1,4.4704863E-1,7.486547E-1,1.2366939E0,6.2030334E-2,-5.3902847E-1,-5.7868563E-2,-9.791245E-3,-2.0536326E-1,2.2899637E-2,-1.825151E-1,-2.5548315E-2,1.849354E-1,-1.9255097E-1,2.4756936E-2,-4.328715E-2,1.6563061E-1],"split_indices":[6,4,8,5,5,0,0,3,13,0,4,5,3,0,4,5,8,0,0,7,0,0,0,0,0,0,0,0,0,0,0],"split_type":[0,0,0,0,0,0,0,0,0,0,0,0,0,0,0,0,0,0,0,0,0,0,0,0,0,0,0,0,0,0,0],"sum_hessian":[2.6865667E1,2.4428642E1,2.4370253E0,1.7441267E1,6.9873753E0,1.2049795E0,1.2320458E0,1.3747924E1,3.693342E0,2.532763E0,4.4546127E0,4.843421E0,8.904503E0,1.1655991E0,2.5277429E0,2.307989E0,2.1466236E0,3.2099714E0,1.6334498E0,7.7300224E0,1.1744809E0,1.0276504E0,1.5000924E0,1.0455447E0,1.2624441E0,1.0048586E0,1.141765E0,2.024671E0,1.1853004E0,1.0299577E0,6.7000647E0],"tree_param":{"num_deleted":"0","num_feature":"14","num_nodes":"31","size_leaf_vector":"1"}},{"base_weights":[-2.0584984E-2,1.0122297E-1,-1.5975763E-1,-3.9138757E-3,4.0169805E-1,-2.6438856E-1,1.8959343E-1,1.17224656E-1,-1.13783956E-1,-1.1791154E-2,1.7315514E-1,-4.9413183E-1,-5.8225375E-2,-4.5778655E-2,1.2972021E-1,-4.2058897E-1,5.6129795E-2,-2.2142604E-1,-6.0716374E-3,9.860928E-2,-1.2690337E-1,-1.1626618E-2,-1.7781158E-1,2.3858652E-1,-2.4305154E-1,-1.6829714E-1,1.6565777E-1,1.2524971E-1,-6.235572E-2,5.3232994E-2,-1.5137823E-1,-1.3532856E-1,3.4659192E-2],"categories":[],"categories_nodes":[],"categories_segments":[],"categories_sizes":[],"default_left":[0,0,0,0,0,0,0,0,0,0,0,0,0,0,0,0,0,0,0,0,0,0,0,0,0,0,0,0,0,0,0,0,0],"id":13,"left_children":[1,3,5,7,9,11,13,-1,15,-1,-1,17,19,-1,-1,21,23,-1,-1,25,-1,-1,-1,27,29,31,-1,-1,-1,-1,-1,-1,-1],"loss_changes":[4.687101E-1,4.7062343E-1,5.197277E-1,5.643403E-1,3.212726E-1,4.592669E-1,3.6038178E-1,0E0,5.528866E-1,0E0,0E0,5.3300726E-1,4.17257E-1,0E0,0E0,2.2259158E-1,4.6283698E-1,0E0,0E0,7.4686146E-1,0E0,0E0,0E0,4.9505675E-1,4.530026E-1,3.8657713E-1,0E0,0E0,0E0,0E0,0E0,0E0,0E0],"parents":[2147483647,0,0,1,1,2,2,3,3,4,4,5,5,6,6,8,8,11,11,12,12,15,15,16,16,19,19,23,23,24,24,25,25],"right_children":[2,4,6,8,10,12,14,-1,16,-1,-1,18,20,-1,-1,22,24,-1,-1,26,-1,-1,-1,28,30,32,-1,-1,-1,-1,-1,-1,-1],"split_conditions":[9.180725E-1,4.954527E-1,8.040539E-2,-9.9595106E-1,-3.18731E-1,9.643829E-1,-3.8998976E-1,1.17224656E-1,-6.927316E-1,-1.1791154E-2,1.7315514E-1,2.2810087E-1,-1.0032328E-1,-4.5778655E-2,1.2972021E-1,-2.4256152E-1,6.4270526E-1,-2.2142604E-1,-6.0716374E-3,-1.7204101E-1,-1.2690337E-1,-1.1626618E-2,-1.7781158E-1,3.0754566E-1,-2.5236487E-1,-2.938125E-1,1.6565777E-1,1.2524971E-1,-6.235572E-2,5.3232994E-2,-1.5137823E-1,-1.3532856E-1,3.4659192E-2],"split_indices":[11,6,13,6,2,9,2,0,4,0,0,3,13,0,0,6,5,0,0,13,0,0,0,4,13,6,0,0,0,0,0,0,0],"split_type":[0,0,0,0,0,0,0,0,0,0,0,0,0,0,0,0,0,0,0,0,0,0,0,0,0,0,0,0,0,0,0,0,0],"sum_hessian":[2.5694784E1,1.3847622E1,1.1847161E1,1.09893875E1,2.8582346E0,9.303851E0,2.5433106E0,1.8364042E0,9.152983E0,1.0345078E0,1.8237269E0,3.7396626E0,5.5641885E0,1.2098302E0,1.3334805E0,2.7365031E0,6.41648E0,2.1007323E0,1.6389304E0,4.401502E0,1.1626863E0,1.2309207E0,1.5055826E0,4.111564E0,2.3049154E0,3.166921E0,1.2345812E0,2.981527E0,1.1300373E0,1.0071776E0,1.297738E0,1.2911391E0,1.8757818E0],"tree_param":{"num_deleted":"0","num_feature":"14","num_nodes":"33","size_leaf_vector":"1"}},{"base_weights":[-2.222923E-2,-1.3997258E-1,1.2759456E-1,7.852203E-2,-3.677905E-1,-1.923718E-1,3.8534775E-1,2.3832011E-1,-1.4891097E-1,-5.1678306E-1,4.0899873E-2,-5.014909E-1,1.2644145E-1,5.8974415E-1,7.505851E-2,-8.429752E-2,4.2331895E-1,-2.1296334E-1,-1.2500432E-1,-3.1817194E-2,-1.9269484E-1,-5.7312634E-2,1.2662993E-1,5.643667E-2,2.0814435E-1,1.1992234E-1,-5.899476E-2,7.511587E-2,-1.0272054E-1,2.1787076E-1,-9.207682E-3,7.203134E-2,-1.2929913E-1],"categories":[],"categories_nodes":[],"categories_segments":[],"categories_sizes":[],"default_left":[0,0,0,0,0,0,0,0,0,0,0,0,0,0,0,0,0,0,0,0,0,0,0,0,0,0,0,0,0,0,0,0,0],"id":14,"left_children":[1,3,5,7,9,11,13,15,-1,17,-1,19,21,23,25,27,29,-1,31,-1,-1,-1,-1,-1,-1,-1,-1,-1,-1,-1,-1,-1,-1],"loss_changes":[4.6854845E-1,7.6470864E-1,1.0444697E0,8.8719326E-1,6.272342E-1,6.4647084E-1,3.9013147E-1,4.6689442E-1,0E0,3.5990584E-1,0E0,1.1036539E-1,4.2899048E-1,3.5972834E-2,4.1965282E-1,3.8522515E-1,6.766291E-1,0E0,4.57825E-1,0E0,0E0,0E0,0E0,0E0,0E0,0E0,0E0,0E0,0E0,0E0,0E0,0E0,0E0],"parents":[2147483647,0,0,1,1,2,2,3,3,4,4,5,5,6,6,7,7,9,9,11,11,12,12,13,13,14,14,15,15,16,16,18,18],"right_children":[2,4,6,8,10,12,14,16,-1,18,-1,20,22,24,26,28,30,-1,32,-1,-1,-1,-1,-1,-1,-1,-1,-1,-1,-1,-1,-1,-1],"split_conditions":[2.1456821E-1,-2.0668583E-1,-1.5030974E-1,3.0754566E-1,1.6947258E0,1.2366939E0,3.8240243E-2,-2.0359682E-1,-1.4891097E-1,-2.9718933E-1,4.0899873E-2,8.859941E-1,-9.0000436E-2,-3.5436037E-1,-3.0973905E-1,-4.153502E-1,-3.1474262E-2,-2.1296334E-1,-5.552604E-2,-3.1817194E-2,-1.9269484E-1,-5.7312634E-2,1.2662993E-1,5.643667E-2,2.0814435E-1,1.1992234E-1,-5.899476E-2,7.511587E-2,-1.0272054E-1,2.1787076E-1,-9.207682E-3,7.203134E-2,-1.2929913E-1],"split_indices":[5,6,6,4,6,0,4,13,0,5,0,5,4,2,13,7,13,0,5,0,0,0,0,0,0,0,0,0,0,0,0,0,0],"split_type":[0,0,0,0,0,0,0,0,0,0,0,0,0,0,0,0,0,0,0,0,0,0,0,0,0,0,0,0,0,0,0,0,0],"sum_hessian":[2.4548153E1,1.3782517E1,1.0765636E1,7.3697243E0,6.4127927E0,4.916328E0,5.849309E0,6.224893E0,1.1448313E0,4.930486E0,1.4823065E0,2.205194E0,2.7111337E0,2.983419E0,2.86589E0,2.4670186E0,3.7578745E0,2.7588196E0,2.1716666E0,1.0394783E0,1.1657158E0,1.4779375E0,1.2331961E0,1.1917878E0,1.791631E0,1.0909818E0,1.7749082E0,1.087178E0,1.3798406E0,1.8943576E0,1.8635168E0,1.0883639E0,1.0833029E0],"tree_param":{"num_deleted":"0","num_feature":"14","num_nodes":"33","size_leaf_vector":"1"}},{"base_weights":[-1.8022355E-2,-6.5242834E-2,3.111997E-1,1.2252667E-1,-1.0740422E-1,1.7387928E-1,-3.1311136E-2,-2.5190333E-1,1.4161338E-2,-5.035888E-1,1.6710913E-2,1.4241664E-1,-3.3486748E-1,6.803009E-3,-2.29265E-1,-8.431973E-2,2.5977898E-1,2.0188616E-1,-1.1429391E-2,-6.6677057E-3,-1.5691221E-1,1.3015936E-1,-4.4730217E-3,-4.2073846E-2,1.3472201E-1],"categories":[],"categories_nodes":[],"categories_segments":[],"categories_sizes":[],"default_left":[0,0,0,0,0,0,0,0,0,0,0,0,0,0,0,0,0,0,0,0,0,0,0,0,0],"id":15,"left_children":[1,3,5,-1,7,-1,-1,9,11,13,15,17,19,-1,-1,-1,21,-1,23,-1,-1,-1,-1,-1,-1],"loss_changes":[3.9963093E-1,4.8653406E-1,4.2121336E-1,0E0,3.7502456E-1,0E0,0E0,6.6521E-1,6.0417306E-1,7.09664E-1,4.8321643E-1,8.0695295E-1,2.0245457E-1,0E0,0E0,0E0,1.805306E-1,0E0,5.716167E-1,0E0,0E0,0E0,0E0,0E0,0E0],"parents":[2147483647,0,0,1,1,2,2,4,4,7,7,8,8,9,9,10,10,11,11,12,12,16,16,18,18],"right_children":[2,4,6,-1,8,-1,-1,10,12,14,16,18,20,-1,-1,-1,22,-1,24,-1,-1,-1,-1,-1,-1],"split_conditions":[1.4271084E0,-1.3905836E0,-2.8709126E-1,1.2252667E-1,1.710265E-1,1.7387928E-1,-3.1311136E-2,-1.7777842E-1,-8.3111025E-2,-4.1060212E-1,-3.2083365E-1,-9.9568915E-1,-2.5281173E-1,6.803009E-3,-2.29265E-1,-8.431973E-2,2.0495312E-1,2.0188616E-1,1.3847673E0,-6.6677057E-3,-1.5691221E-1,1.3015936E-1,-4.4730217E-3,-4.2073846E-2,1.3472201E-1],"split_indices":[2,6,7,0,3,0,0,13,13,4,4,2,6,0,0,0,4,0,4,0,0,0,0,0,0],"split_type":[0,0,0,0,0,0,0,0,0,0,0,0,0,0,0,0,0,0,0,0,0,0,0,0,0],"sum_hessian":[2.3400282E1,2.1166227E1,2.234055E0,1.0199877E0,2.014624E1,1.1175656E0,1.1164895E0,8.714991E0,1.1431249E1,4.0476594E0,4.667331E0,8.792347E0,2.638902E0,1.6430233E0,2.4046364E0,2.02735E0,2.6399815E0,1.2179723E0,7.5743747E0,1.411638E0,1.227264E0,1.2612091E0,1.3787723E0,6.46216E0,1.1122148E0],"tree_param":{"num_deleted":"0","num_feature":"14","num_nodes":"25","size_leaf_vector":"1"}},{"base_weights":[-4.8506544E-3,-1.1734075E-1,3.305224E-2,-1.1314205E-1,1.9913277E-1,2.301528E-2,-1.7979538E-1,1.8273456E-1,-2.7267555E-2,4.0708026E-1,-1.8401131E-1,1.3054198E-1,-2.4283203E-1,-1.0572022E-2,1.7094737E-1,1.5110701E-1,-5.746634E-1,3.391548E-2,-3.690574E-1,-9.238305E-2,1.14243805E-1,-6.0215004E-2,-2.0727523E-1,-1.58875E-1,1.2627877E-2],"categories":[],"categories_nodes":[],"categories_segments":[],"categories_sizes":[],"default_left":[0,0,0,0,0,0,0,0,0,0,0,0,0,0,0,0,0,0,0,0,0,0,0,0,0],"id":16,"left_children":[1,-1,3,5,7,9,-1,-1,11,13,15,-1,17,-1,-1,19,21,-1,23,-1,-1,-1,-1,-1,-1],"loss_changes":[3.5788158E-1,0E0,5.6584805E-1,8.4381497E-1,1.0226295E0,9.3033266E-1,0E0,0E0,8.970801E-1,3.137375E-1,1.0921398E0,0E0,3.1381366E-1,0E0,0E0,6.3660634E-1,2.4516106E-2,0E0,3.3286786E-1,0E0,0E0,0E0,0E0,0E0,0E0],"parents":[2147483647,0,0,2,2,3,3,4,4,5,5,8,8,9,9,10,10,12,12,15,15,16,16,18,18],"right_children":[2,-1,4,6,8,10,-1,-1,12,14,16,-1,18,-1,-1,20,22,-1,24,-1,-1,-1,-1,-1,-1],"split_conditions":[-3.8432547E-1,-1.1734075E-1,1.745374E-1,-6.513638E-2,6.694638E-1,7.486547E-1,-1.7979538E-1,1.8273456E-1,-3.0113292E-1,-8.6825967E-1,-1.1932077E-2,1.3054198E-1,-8.2097226E-1,-1.0572022E-2,1.7094737E-1,-3.8069248E-1,5.902813E-1,3.391548E-2,6.656711E-1,-9.238305E-2,1.14243805E-1,-6.0215004E-2,-2.0727523E-1,-1.58875E-1,1.2627877E-2],"split_indices":[13,0,5,5,5,8,0,0,13,5,6,0,4,0,0,3,1,0,3,0,0,0,0,0,0],"split_type":[0,0,0,0,0,0,0,0,0,0,0,0,0,0,0,0,0,0,0,0,0,0,0,0,0],"sum_hessian":[2.2560276E1,1.1831235E0,2.1377151E1,1.153877E1,9.838383E0,9.75849E0,1.7802802E0,2.898724E0,6.939658E0,3.0794096E0,6.6790795E0,1.8826272E0,5.057031E0,1.0389974E0,2.0404122E0,3.9251275E0,2.753952E0,1.3513529E0,3.7056782E0,1.1954684E0,2.729659E0,1.2997301E0,1.454222E0,2.4579606E0,1.2477176E0],"tree_param":{"num_deleted":"0","num_feature":"14","num_nodes":"25","size_leaf_vector":"1"}},{"base_weights":[-1.2434159E-2,1.02696076E-1,-1.4601292E-1,1.3916494E-1,1.2452751E-2,-2.5223416E-1,1.9219828E-1,-1.2005828E-1,1.1395712E-1,4.5173556E-2,-3.5477686E-1,-2.98289E-2,1.1445248E-1,-1.09539196E-1,3.204357E-1,-1.729961E-1,-9.825684E-2,1.22818194E-1,-3.4026366E-1,-3.335036E-2,4.5052585E-1,4.9516153E-2,-8.6204246E-2,2.2546604E-2,-1.7377648E-1,1.8838833E-1,5.400451E-2],"categories":[],"categories_nodes":[],"categories_segments":[],"categories_sizes":[],"default_left":[0,0,0,0,0,0,0,0,0,0,0,0,0,0,0,0,0,0,0,0,0,0,0,0,0,0,0],"id":17,"left_children":[1,3,5,-1,7,9,11,-1,13,-1,15,-1,-1,17,19,-1,21,-1,23,-1,25,-1,-1,-1,-1,-1,-1],"loss_changes":[3.6062285E-1,4.067961E-1,4.3706137E-1,0E0,5.1283365E-1,4.112807E-1,2.1198857E-1,0E0,4.8416108E-1,0E0,3.533448E-1,0E0,0E0,7.880259E-1,3.4838682E-1,0E0,2.7379176E-1,0E0,4.7012004E-1,0E0,9.240371E-2,0E0,0E0,0E0,0E0,0E0,0E0],"parents":[2147483647,0,0,1,1,2,2,4,4,5,5,6,6,8,8,10,10,13,13,14,14,16,16,18,18,20,20],"right_children":[2,4,6,-1,8,10,12,-1,14,-1,16,-1,-1,18,20,-1,22,-1,24,-1,26,-1,-1,-1,-1,-1,-1],"split_conditions":[9.180725E-1,-9.9930674E-1,8.040539E-2,1.3916494E-1,-6.417058E-1,-8.5317165E-1,-3.8998976E-1,-1.2005828E-1,-1.5030974E-1,4.5173556E-2,6.7683555E-2,-2.98289E-2,1.1445248E-1,4.4701654E-2,-1.9665739E-1,-1.729961E-1,-2.8965807E-1,1.22818194E-1,-8.1754225E-1,-3.335036E-2,6.4270526E-1,4.9516153E-2,-8.6204246E-2,2.2546604E-2,-1.7377648E-1,1.8838833E-1,5.400451E-2],"split_indices":[11,5,13,0,5,2,2,0,6,0,5,0,0,5,5,0,13,0,2,0,5,0,0,0,0,0,0],"split_type":[0,0,0,0,0,0,0,0,0,0,0,0,0,0,0,0,0,0,0,0,0,0,0,0,0,0,0],"sum_hessian":[2.1474083E1,1.1657657E1,9.816426E0,1.5027478E0,1.0154908E1,7.663712E0,2.152714E0,1.4238565E0,8.731052E0,1.4600059E0,6.2037063E0,1.0342511E0,1.1184629E0,4.4181986E0,4.3128533E0,2.6572943E0,3.546412E0,1.121468E0,3.2967308E0,1.0325594E0,3.280294E0,1.535429E0,2.010983E0,1.4543257E0,1.842405E0,1.1829656E0,2.0973284E0],"tree_param":{"num_deleted":"0","num_feature":"14","num_nodes":"27","size_leaf_vector":"1"}},{"base_weights":[-4.138638E-3,-4.8644364E-2,8.714E-2,7.705095E-2,-1.9551806E-1,1.18830405E-1,-8.875345E-3,1.3214861E-2,-5.274253E-1,-1.0051839E-1,8.408345E-2,-1.2259378E-1,1.1211596E-1,-2.0116636E-1,-2.5557743E-2,-8.5794024E-2,2.7454388E-1,7.56309E-2,-2.6464918E-1,1.0658974E-1,-8.4997594E-2,1.14654444E-1,1.8847667E-2,-1.8034786E-1,3.2357417E-2],"categories":[],"categories_nodes":[],"categories_segments":[],"categories_sizes":[],"default_left":[0,0,0,0,0,0,0,0,0,0,0,0,0,0,0,0,0,0,0,0,0,0,0,0,0],"id":18,"left_children":[1,3,-1,5,7,-1,9,11,13,-1,15,17,-1,-1,-1,19,21,-1,23,-1,-1,-1,-1,-1,-1],"loss_changes":[2.9743218E-1,3.7741995E-1,0E0,3.1313133E-1,6.536323E-1,0E0,3.276185E-1,3.7413305E-1,1.7252433E-1,0E0,2.9807723E-1,3.6606622E-1,0E0,0E0,0E0,5.578002E-1,7.257134E-2,0E0,6.3716805E-1,0E0,0E0,0E0,0E0,0E0,0E0],"parents":[2147483647,0,0,1,1,3,3,4,4,6,6,7,7,8,8,10,10,11,11,15,15,16,16,18,18],"right_children":[2,4,-1,6,8,-1,10,12,14,-1,16,18,-1,-1,-1,20,22,-1,24,-1,-1,-1,-1,-1,-1],"split_conditions":[1.6947258E0,9.180725E-1,8.714E-2,-9.9930674E-1,2.3943614E-2,1.18830405E-1,-6.417058E-1,-1.5543485E-1,-6.876748E-2,-1.0051839E-1,-1.5030974E-1,-1.0389814E0,1.1211596E-1,-2.0116636E-1,-2.5557743E-2,4.4701654E-2,-2.294152E-1,7.56309E-2,-2.695374E-1,1.0658974E-1,-8.4997594E-2,1.14654444E-1,1.8847667E-2,-1.8034786E-1,3.2357417E-2],"split_indices":[6,11,0,5,6,0,5,6,13,0,6,4,0,0,0,5,13,0,4,0,0,0,0,0,0],"split_type":[0,0,0,0,0,0,0,0,0,0,0,0,0,0,0,0,0,0,0,0,0,0,0,0,0],"sum_hessian":[2.0606981E1,1.8627785E1,1.9791976E0,1.0293739E1,8.334045E0,1.4181751E0,8.875565E0,5.7058697E0,2.6281755E0,1.3908305E0,7.4847336E0,4.623902E0,1.0819676E0,1.5954976E0,1.0326778E0,4.246603E0,3.2381308E0,1.0581526E0,3.5657494E0,1.0664626E0,3.18014E0,1.6129607E0,1.6251701E0,1.5508999E0,2.0148497E0],"tree_param":{"num_deleted":"0","num_feature":"14","num_nodes":"25","size_leaf_vector":"1"}},{"base_weights":[-1.021359E-3,-4.717724E-2,9.0184554E-2,1.0314567E-1,-2.4875388E-1,-7.7690803E-3,1.4240043E-1,-3.92622E-1,2.8409855E-2,2.8488597E-1,-1.8330897E-1,-1.377278E-1,-1.7650113E-1,-8.3728045E-2,7.800961E-2,-2.4966428E-2,1.3623522E-1,4.2156752E-2,-3.472624E-1,-1.0508794E-1,5.4746583E-2,-5.7973634E-2,9.0419926E-2,-1.542861E-1,-2.6028631E-3],"categories":[],"categories_nodes":[],"categories_segments":[],"categories_sizes":[],"default_left":[0,0,0,0,0,0,0,0,0,0,0,0,0,0,0,0,0,0,0,0,0,0,0,0,0],"id":19,"left_children":[1,3,-1,5,7,9,-1,11,13,15,17,19,-1,-1,-1,-1,-1,21,23,-1,-1,-1,-1,-1,-1],"loss_changes":[3.0449697E-1,5.998577E-1,0E0,4.801113E-1,3.4562117E-1,5.6016624E-1,0E0,1.9779527E-1,3.4313345E-1,2.9311678E-1,2.655946E-1,3.1803343E-1,0E0,0E0,0E0,0E0,0E0,2.870919E-1,2.2394395E-1,0E0,0E0,0E0,0E0,0E0,0E0],"parents":[2147483647,0,0,1,1,3,3,4,4,5,5,7,7,8,8,9,9,10,10,11,11,17,17,18,18],"right_children":[2,4,-1,6,8,10,-1,12,14,16,18,20,-1,-1,-1,-1,-1,22,24,-1,-1,-1,-1,-1,-1],"split_conditions":[1.4271084E0,-1.028245E-1,9.0184554E-2,-2.695374E-1,1.115462E0,-6.884451E-1,1.4240043E-1,9.180725E-1,-2.3985402E-1,-2.0933422E-1,-2.0646551E-1,-2.007281E-1,-1.7650113E-1,-8.3728045E-2,7.800961E-2,-2.4966428E-2,1.3623522E-1,-1.5030974E-1,6.656711E-1,-1.0508794E-1,5.4746583E-2,-5.7973634E-2,9.0419926E-2,-1.542861E-1,-2.6028631E-3],"split_indices":[2,4,0,4,4,6,0,11,5,13,13,13,0,0,0,0,0,6,3,0,0,0,0,0,0],"split_type":[0,0,0,0,0,0,0,0,0,0,0,0,0,0,0,0,0,0,0,0,0,0,0,0,0],"sum_hessian":[1.9852505E1,1.79495E1,1.9030046E0,1.0561625E1,7.387875E0,8.8874445E0,1.6741798E0,4.5891843E0,2.7986908E0,3.098613E0,5.7888317E0,2.7332222E0,1.855962E0,1.1143372E0,1.6843536E0,1.1359549E0,1.9626582E0,2.7499816E0,3.0388498E0,1.5862892E0,1.1469332E0,1.5746863E0,1.1752954E0,1.6874874E0,1.3513626E0],"tree_param":{"num_deleted":"0","num_feature":"14","num_nodes":"25","size_leaf_vector":"1"}},{"base_weights":[-2.1676272E-3,6.95261E-2,-1.4855686E-1,-1.0613304E-1,1.9650939E-1,-4.3643925E-1,1.1788143E-1,-1.2271538E-1,8.3538786E-2,3.1704766E-1,-5.1260944E-2,-1.7608465E-1,-4.0083885E-2,3.125338E-1,-7.444445E-2,1.116037E-1,-1.5796126E-1,8.737948E-2,1.6709304E-1,1.5566249E-2,1.3412562E-1,5.055872E-2,-1.160168E-1,-1.20961756E-1,1.2229124E-1,6.16173E-2,-1.2860334E-1],"categories":[],"categories_nodes":[],"categories_segments":[],"categories_sizes":[],"default_left":[0,0,0,0,0,0,0,0,0,0,0,0,0,0,0,0,0,0,0,0,0,0,0,0,0,0,0],"id":20,"left_children":[1,3,5,7,9,11,13,-1,15,17,-1,-1,-1,19,-1,-1,21,23,-1,-1,-1,-1,-1,25,-1,-1,-1],"loss_changes":[2.2203737E-1,3.3808303E-1,5.8455217E-1,4.1432276E-1,4.3524188E-1,8.353138E-2,3.9082742E-1,0E0,4.000746E-1,3.2766783E-1,0E0,0E0,0E0,9.299031E-2,0E0,0E0,3.167748E-1,3.6126915E-1,0E0,0E0,0E0,0E0,0E0,4.4995937E-1,0E0,0E0,0E0],"parents":[2147483647,0,0,1,1,2,2,3,3,4,4,5,5,6,6,8,8,9,9,13,13,16,16,17,17,23,23],"right_children":[2,4,6,8,10,12,14,-1,16,18,-1,-1,-1,20,-1,-1,22,24,-1,-1,-1,-1,-1,26,-1,-1,-1],"split_conditions":[3.0754566E-1,-1.9212197E-1,1.115462E0,-1.7141977E-1,9.3688256E-1,2.127876E-1,1.7438412E0,-1.2271538E-1,-3.8998976E-1,-2.8236145E-1,-5.1260944E-2,-1.7608465E-1,-4.0083885E-2,-1.68188E-3,-7.444445E-2,1.116037E-1,-2.982642E-1,5.324975E-1,1.6709304E-1,1.5566249E-2,1.3412562E-1,5.055872E-2,-1.160168E-1,-8.524587E-3,1.2229124E-1,6.16173E-2,-1.2860334E-1],"split_indices":[4,13,4,3,5,5,4,0,2,4,0,0,0,6,0,0,13,3,0,0,0,0,0,13,0,0,0],"split_type":[0,0,0,0,0,0,0,0,0,0,0,0,0,0,0,0,0,0,0,0,0,0,0,0,0,0,0],"sum_hessian":[1.9171984E1,1.3221736E1,5.9502482E0,5.6164956E0,7.6052403E0,2.553347E0,3.3969014E0,1.717273E0,3.8992229E0,5.829549E0,1.7756915E0,1.078887E0,1.4744601E0,2.3130088E0,1.0838926E0,1.5305485E0,2.3686743E0,3.6754622E0,2.1540864E0,1.259263E0,1.0537456E0,1.0843614E0,1.2843128E0,2.6038487E0,1.0716136E0,1.4250363E0,1.1788124E0],"tree_param":{"num_deleted":"0","num_feature":"14","num_nodes":"27","size_leaf_vector":"1"}},{"base_weights":[-4.1637034E-3,-9.777533E-2,1.1128251E-1,9.777949E-3,-1.4593339E-1,1.976755E-1,-7.1012855E-2,-2.808437E-1,1.5288918E-1,3.4359562E-1,3.642946E-2,-8.232189E-5,-1.3161458E-1,-4.0918395E-2,3.1657E-1,-1.3760743E-3,1.4211923E-1,-8.1495106E-2,2.4830201E-1,5.4587126E-2,-8.855196E-2,1.3276573E-1,4.6225395E-3,-1.5164323E-2,1.1847624E-1],"categories":[],"categories_nodes":[],"categories_segments":[],"categories_sizes":[],"default_left":[0,0,0,0,0,0,0,0,0,0,0,0,0,0,0,0,0,0,0,0,0,0,0,0,0],"id":21,"left_children":[1,3,5,7,-1,9,-1,11,13,15,17,-1,-1,19,21,-1,-1,-1,23,-1,-1,-1,-1,-1,-1],"loss_changes":[2.206083E-1,4.7499287E-1,3.22103E-1,4.5016223E-1,0E0,1.7291829E-1,0E0,1.58589E-1,2.4161038E-1,1.842578E-1,3.848476E-1,0E0,0E0,2.9090762E-1,1.4578709E-1,0E0,0E0,0E0,1.6909732E-1,0E0,0E0,0E0,0E0,0E0,0E0],"parents":[2147483647,0,0,1,1,2,2,3,3,5,5,7,7,8,8,9,9,10,10,13,13,14,14,18,18],"right_children":[2,4,6,8,-1,10,-1,12,14,16,18,-1,-1,20,22,-1,-1,-1,24,-1,-1,-1,-1,-1,-1],"split_conditions":[1.2366939E0,2.2677867E0,1.1032413E0,-2.6097098E-1,-1.4593339E-1,-3.5436037E-1,-7.1012855E-2,-3.0973905E-1,1.710265E-1,-5.388526E-1,1.08821504E-1,-8.232189E-5,-1.3161458E-1,-2.1380042E-1,-6.8069785E-3,-1.3760743E-3,1.4211923E-1,-8.1495106E-2,-1.412967E-1,5.4587126E-2,-8.855196E-2,1.3276573E-1,4.6225395E-3,-1.5164323E-2,1.1847624E-1],"split_indices":[0,10,3,13,0,2,0,13,3,5,2,0,0,7,6,0,0,0,4,0,0,0,0,0,0],"split_type":[0,0,0,0,0,0,0,0,0,0,0,0,0,0,0,0,0,0,0,0,0,0,0,0,0],"sum_hessian":[1.840645E1,1.0248961E1,8.157488E0,8.791112E0,1.4578502E0,6.8811245E0,1.2763636E0,2.5830975E0,6.208014E0,3.018576E0,3.8625486E0,1.2908094E0,1.2922881E0,3.1858246E0,3.0221894E0,1.0837377E0,1.9348382E0,1.458961E0,2.4035876E0,1.8491992E0,1.3366255E0,1.7998064E0,1.2223831E0,1.006765E0,1.3968225E0],"tree_param":{"num_deleted":"0","num_feature":"14","num_nodes":"25","size_leaf_vector":"1"}},{"base_weights":[-7.4648615E-3,-4.807137E-2,7.558141E-2,8.254952E-2,-2.1626551E-1,-9.631354E-3,1.2719128E-1,4.3168742E-2,-2.9128447E-1,1.0177462E-1,-9.634348E-2,-3.8474068E-1,-5.724176E-3,-9.792803E-2,3.5571426E-1,-4.601489E-1,-3.596364E-2,1.0276433E-1,-1.1856369E-1,1.4075187E-1,1.5047708E-2,-1.6812584E-1,-3.2280035E-2],"categories":[],"categories_nodes":[],"categories_segments":[],"categories_sizes":[],"default_left":[0,0,0,0,0,0,0,0,0,0,0,0,0,0,0,0,0,0,0,0,0,0,0],"id":22,"left_children":[1,3,-1,5,7,9,-1,-1,11,13,-1,15,-1,17,19,21,-1,-1,-1,-1,-1,-1,-1],"loss_changes":[2.1065529E-1,3.9435762E-1,0E0,3.3045128E-1,2.5178567E-1,3.4999225E-1,0E0,0E0,1.6460723E-1,4.1487312E-1,0E0,4.4292033E-2,0E0,7.873768E-1,9.832016E-2,6.42612E-2,0E0,0E0,0E0,0E0,0E0,0E0,0E0],"parents":[2147483647,0,0,1,1,3,3,4,4,5,5,8,8,9,9,11,11,13,13,14,14,15,15],"right_children":[2,4,-1,6,8,10,-1,-1,12,14,-1,16,-1,18,20,22,-1,-1,-1,-1,-1,-1,-1],"split_conditions":[1.4271084E0,-1.1564857E-1,7.558141E-2,6.427861E-1,-3.3842614E-1,2.5133902E-1,1.2719128E-1,4.3168742E-2,1.8008025E-1,-6.03766E-1,-9.634348E-2,-1.1760621E-1,-5.724176E-3,-9.4921297E-1,-4.1993088E-1,3.1607425E-1,-3.596364E-2,1.0276433E-1,-1.1856369E-1,1.4075187E-1,1.5047708E-2,-1.6812584E-1,-3.2280035E-2],"split_indices":[2,4,0,7,13,2,0,0,2,2,0,7,0,4,7,6,0,0,0,0,0,0,0],"split_type":[0,0,0,0,0,0,0,0,0,0,0,0,0,0,0,0,0,0,0,0,0,0,0],"sum_hessian":[1.7848942E1,1.6137491E1,1.7114522E0,9.36993E0,6.76756E0,8.143142E0,1.2267888E0,1.0083598E0,5.7592E0,6.4939966E0,1.6491451E0,3.9794877E0,1.7797126E0,3.979115E0,2.5148816E0,2.5236642E0,1.4558233E0,1.5420525E0,2.4370623E0,1.443431E0,1.0714506E0,1.5057755E0,1.0178889E0],"tree_param":{"num_deleted":"0","num_feature":"14","num_nodes":"23","size_leaf_vector":"1"}},{"base_weights":[-3.1480954E-3,9.5921375E-2,-1.21642195E-1,2.0483547E-1,-1.4141242E-1,-2.2934315E-1,5.9826676E-2,7.576243E-2,1.454118E-1,5.804559E-2,-9.917408E-2,-4.2344975E-1,-3.881896E-2,2.278128E-1,-1.4950426E-1,-1.7522879E-1,-1.8368991E-2,1.4184164E-1,-7.5767934E-2,1.0520027E-1,-2.2705836E-2,-1.5633021E-1,8.06344E-2,-3.331031E-3,6.916773E-2],"categories":[],"categories_nodes":[],"categories_segments":[],"categories_sizes":[],"default_left":[0,0,0,0,0,0,0,0,0,0,0,0,0,0,0,0,0,0,0,0,0,0,0,0,0],"id":23,"left_children":[1,3,5,7,9,11,-1,13,-1,-1,-1,15,17,19,21,-1,-1,23,-1,-1,-1,-1,-1,-1,-1],"loss_changes":[2.2666381E-1,3.0125707E-1,3.4935737E-1,2.3885912E-1,3.1135666E-1,2.439177E-1,0E0,2.5348458E-1,0E0,0E0,0E0,1.6128331E-1,2.1552564E-1,1.8392211E-1,6.351705E-1,0E0,0E0,4.5470268E-2,0E0,0E0,0E0,0E0,0E0,0E0,0E0],"parents":[2147483647,0,0,1,1,2,2,3,3,4,4,5,5,7,7,11,11,12,12,13,13,14,14,17,17],"right_children":[2,4,6,8,10,12,-1,14,-1,-1,-1,16,18,20,22,-1,-1,24,-1,-1,-1,-1,-1,-1,-1],"split_conditions":[9.180725E-1,-9.745457E-2,8.040539E-2,1.1850121E0,1.8828154E-2,9.643829E-1,5.9826676E-2,4.4701654E-2,1.454118E-1,5.804559E-2,-9.917408E-2,2.2810087E-1,-1.1564857E-1,-9.0000436E-2,-1.5030974E-1,-1.7522879E-1,-1.8368991E-2,-2.007281E-1,-7.5767934E-2,1.0520027E-1,-2.2705836E-2,-1.5633021E-1,8.06344E-2,-3.331031E-3,6.916773E-2],"split_indices":[11,13,13,5,3,9,0,5,0,0,0,3,4,4,6,0,0,13,0,0,0,0,0,0,0],"split_type":[0,0,0,0,0,0,0,0,0,0,0,0,0,0,0,0,0,0,0,0,0,0,0,0,0],"sum_hessian":[1.7314426E1,9.533903E0,7.780523E0,6.6288223E0,2.9050813E0,6.040064E0,1.7404587E0,5.4062347E0,1.2225877E0,1.040386E0,1.8646952E0,2.3863215E0,3.6537423E0,3.2208946E0,2.18534E0,1.2287979E0,1.1575236E0,2.1623988E0,1.4913437E0,2.1821542E0,1.0387405E0,1.0270915E0,1.1582485E0,1.1150118E0,1.0473869E0],"tree_param":{"num_deleted":"0","num_feature":"14","num_nodes":"25","size_leaf_vector":"1"}},{"base_weights":[-4.791142E-3,-9.874873E-2,1.0093165E-1,6.900704E-2,-2.8408912E-1,-1.18494876E-1,2.798233E-1,-1.7676987E-1,2.5092548E-1,3.583667E-2,-4.436883E-1,-1.1485609E-1,4.8626658E-2,6.27256E-2,1.419264E-1,2.0104554E-2,-1.00908674E-1,-1.2051413E-2,1.1952034E-1,-1.8178767E-1,-4.1150264E-2,8.5707664E-2,-4.8988953E-2],"categories":[],"categories_nodes":[],"categories_segments":[],"categories_sizes":[],"default_left":[0,0,0,0,0,0,0,0,0,0,0,0,0,0,0,0,0,0,0,0,0,0,0],"id":24,"left_children":[1,3,5,7,9,11,13,15,17,-1,19,-1,-1,21,-1,-1,-1,-1,-1,-1,-1,-1,-1],"loss_changes":[1.8557869E-1,3.2634753E-1,3.7910423E-1,3.1186745E-1,3.6746812E-1,4.0775812E-1,1.8650967E-1,1.4437893E-1,1.8134837E-1,0E0,1.0146326E-1,0E0,0E0,2.2704145E-1,0E0,0E0,0E0,0E0,0E0,0E0,0E0,0E0,0E0],"parents":[2147483647,0,0,1,1,2,2,3,3,4,4,5,5,6,6,7,7,8,8,10,10,13,13],"right_children":[2,4,6,8,10,12,14,16,18,-1,20,-1,-1,22,-1,-1,-1,-1,-1,-1,-1,-1,-1],"split_conditions":[1.745374E-1,-2.0668583E-1,-1.5030974E-1,-7.7557176E-1,7.486547E-1,1.2366939E0,-2.9167193E-1,-3.741241E-1,-4.3825358E-1,3.583667E-2,1.02360584E-1,-1.1485609E-1,4.8626658E-2,2.9557383E-1,1.419264E-1,2.0104554E-2,-1.00908674E-1,-1.2051413E-2,1.1952034E-1,-1.8178767E-1,-4.1150264E-2,8.5707664E-2,-4.8988953E-2],"split_indices":[5,6,6,6,8,0,7,7,7,0,4,0,0,6,0,0,0,0,0,0,0,0,0],"split_type":[0,0,0,0,0,0,0,0,0,0,0,0,0,0,0,0,0,0,0,0,0,0,0],"sum_hessian":[1.667882E1,8.865695E0,7.8131237E0,4.983075E0,3.8826196E0,3.6606398E0,4.152484E0,2.1315684E0,2.851507E0,1.1716481E0,2.7109716E0,1.6971446E0,1.9634953E0,2.5794733E0,1.5730107E0,1.0728396E0,1.0587288E0,1.2035229E0,1.647984E0,1.1338326E0,1.5771389E0,1.1656148E0,1.4138584E0],"tree_param":{"num_deleted":"0","num_feature":"14","num_nodes":"23","size_leaf_vector":"1"}},{"base_weights":[-6.7506377E-3,8.692118E-2,-1.175921E-1,1.605907E-1,-5.5968545E-2,3.1145485E-2,-3.3607954E-1,6.0442556E-2,1.3264133E-1,-9.2688665E-2,9.273216E-2,-1.5130948E-1,-4.127043E-3,1.833394E-1,-6.738591E-2,9.3653224E-2,-1.0277987E-1,1.2081064E-1,-5.4505873E-2,-3.4202967E-2,7.538882E-2,-8.683841E-2,6.258203E-2],"categories":[],"categories_nodes":[],"categories_segments":[],"categories_sizes":[],"default_left":[0,0,0,0,0,0,0,0,0,0,0,0,0,0,0,0,0,0,0,0,0,0,0],"id":25,"left_children":[1,3,5,7,-1,9,11,13,-1,15,-1,-1,-1,17,-1,19,-1,-1,21,-1,-1,-1,-1],"loss_changes":[1.8883225E-1,2.2938794E-1,2.803333E-1,2.083018E-1,0E0,2.3021966E-1,1.8010476E-1,2.9715782E-1,0E0,2.5656885E-1,0E0,0E0,0E0,3.1705528E-1,0E0,1.4475915E-1,0E0,0E0,2.8259662E-1,0E0,0E0,0E0,0E0],"parents":[2147483647,0,0,1,1,2,2,3,3,5,5,6,6,7,7,9,9,13,13,15,15,18,18],"right_children":[2,4,6,8,-1,10,12,14,-1,16,-1,-1,-1,18,-1,20,-1,-1,22,-1,-1,-1,-1],"split_conditions":[9.180725E-1,7.179927E-2,-6.263809E-2,-1.2250647E-2,-5.5968545E-2,-7.1636185E-2,6.427861E-1,3.0754566E-1,1.3264133E-1,2.3943614E-2,9.273216E-2,-1.5130948E-1,-4.127043E-3,-4.3219018E-1,-6.738591E-2,-3.604388E-1,-1.0277987E-1,1.2081064E-1,-3.5436037E-1,-3.4202967E-2,7.538882E-2,-8.683841E-2,6.258203E-2],"split_indices":[11,13,7,7,0,13,7,4,0,6,0,0,0,6,0,6,0,0,2,0,0,0,0],"split_type":[0,0,0,0,0,0,0,0,0,0,0,0,0,0,0,0,0,0,0,0,0,0,0],"sum_hessian":[1.6202719E1,8.89846E0,7.3042583E0,7.3353057E0,1.5631546E0,4.855962E0,2.4482965E0,6.306664E0,1.0286418E0,3.8204584E0,1.0355031E0,1.2374427E0,1.2108538E0,4.65614E0,1.6505239E0,2.5467618E0,1.2736968E0,2.0616088E0,2.5945313E0,1.2184626E0,1.3282992E0,1.3177018E0,1.2768295E0],"tree_param":{"num_deleted":"0","num_feature":"14","num_nodes":"23","size_leaf_vector":"1"}},{"base_weights":[-6.0749473E-3,-9.5847845E-2,9.389331E-2,-1.9951677E-4,-1.2578455E-1,-1.0167593E-1,2.5615433E-1,-2.177471E-1,1.18997514E-1,4.3466862E-2,-1.0203567E-1,1.16129495E-1,6.2029557E-3,3.1248212E-2,-1.2344504E-1,1.14765935E-1,-1.3276085E-1,6.3992225E-2,-1.4221895E-1],"categories":[],"categories_nodes":[],"categories_segments":[],"categories_sizes":[],"default_left":[0,0,0,0,0,0,0,0,0,0,0,0,0,0,0,0,0,0,0],"id":26,"left_children":[1,3,5,7,-1,9,11,13,15,-1,-1,-1,-1,-1,-1,-1,17,-1,-1],"loss_changes":[1.5863769E-1,2.869932E-1,2.9241672E-1,2.3756726E-1,0E0,3.151494E-1,1.4221737E-1,2.4508359E-1,4.4357413E-1,0E0,0E0,0E0,0E0,0E0,0E0,0E0,5.464083E-1,0E0,0E0],"parents":[2147483647,0,0,1,1,2,2,3,3,5,5,6,6,7,7,8,8,16,16],"right_children":[2,4,6,8,-1,10,12,14,16,-1,-1,-1,-1,-1,-1,-1,18,-1,-1],"split_conditions":[1.745374E-1,-5.552604E-2,-1.5030974E-1,-3.8069248E-1,-1.2578455E-1,-4.3219018E-1,2.4342532E-1,-1.065585E0,3.6127442E-1,4.3466862E-2,-1.0203567E-1,1.16129495E-1,6.2029557E-3,3.1248212E-2,-1.2344504E-1,1.14765935E-1,-3.741241E-1,6.3992225E-2,-1.4221895E-1],"split_indices":[5,5,6,3,0,6,4,3,3,0,0,0,0,0,0,0,7,0,0],"split_type":[0,0,0,0,0,0,0,0,0,0,0,0,0,0,0,0,0,0,0],"sum_hessian":[1.5673821E1,8.279727E0,7.394094E0,7.162265E0,1.1174623E0,3.522224E0,3.8718698E0,2.2425618E0,4.919703E0,1.9245088E0,1.5977153E0,2.0744371E0,1.7974329E0,1.0162851E0,1.2262768E0,2.1497219E0,2.7699811E0,1.561597E0,1.2083842E0],"tree_param":{"num_deleted":"0","num_feature":"14","num_nodes":"19","size_leaf_vector":"1"}},{"base_weights":[-1.2247992E-2,-5.1593702E-2,6.721593E-2,4.1438162E-2,-2.3296517E-1,-5.146958E-2,1.2197754E-1,2.0573251E-2,-3.8731682E-1,1.7926262E-1,-1.513308E-1,-1.5658368E-1,-1.2428063E-2,8.8676035E-2,-1.0374614E-2,-2.5611478E-1,4.1414663E-2,-1.14608E-1,-1.605791E-2],"categories":[],"categories_nodes":[],"categories_segments":[],"categories_sizes":[],"default_left":[0,0,0,0,0,0,0,0,0,0,0,0,0,0,0,0,0,0,0],"id":27,"left_children":[1,3,-1,5,7,9,-1,-1,11,13,15,-1,-1,-1,-1,17,-1,-1,-1],"loss_changes":[1.6197428E-1,2.5738192E-1,0E0,3.789463E-1,2.652638E-1,2.4141677E-1,0E0,0E0,1.4334589E-1,9.149078E-2,2.4861948E-1,0E0,0E0,0E0,0E0,1.20197386E-1,0E0,0E0,0E0],"parents":[2147483647,0,0,1,1,3,3,4,4,5,5,8,8,9,9,10,10,15,15],"right_children":[2,4,-1,6,8,10,-1,-1,12,14,16,-1,-1,-1,-1,18,-1,-1,-1],"split_conditions":[1.6947258E0,2.3943614E-2,6.721593E-2,-1.3493444E-1,5.902813E-1,-7.225167E-1,1.2197754E-1,2.0573251E-2,-1.4335392E-1,9.180725E-1,9.129934E-1,-1.5658368E-1,-1.2428063E-2,8.8676035E-2,-1.0374614E-2,1.2366939E0,4.1414663E-2,-1.14608E-1,-1.605791E-2],"split_indices":[6,6,0,6,1,5,0,0,13,11,3,0,0,0,0,0,0,0,0],"split_type":[0,0,0,0,0,0,0,0,0,0,0,0,0,0,0,0,0,0,0],"sum_hessian":[1.5178073E1,1.3681648E1,1.496425E0,9.553069E0,4.128579E0,8.300245E0,1.2528235E0,1.5859534E0,2.542626E0,2.2670484E0,6.0331974E0,1.4638621E0,1.0787638E0,1.2207516E0,1.0462966E0,4.513733E0,1.519464E0,2.237416E0,2.2763171E0],"tree_param":{"num_deleted":"0","num_feature":"14","num_nodes":"19","size_leaf_vector":"1"}},{"base_weights":[-7.5514643E-3,-5.005804E-2,6.5786555E-2,6.3749E-2,-1.9720866E-1,2.616235E-1,-5.8995336E-2,2.0301959E-2,-3.067633E-1,4.737412E-3,1.23489946E-1,1.1198545E-1,-1.04328826E-1,2.0948168E-2,-1.4620984E-1,7.9949334E-2,-3.3864796E-2,-4.888319E-2,3.3130966E-2],"categories":[],"categories_nodes":[],"categories_segments":[],"categories_sizes":[],"default_left":[0,0,0,0,0,0,0,0,0,0,0,0,0,0,0,0,0,0,0],"id":28,"left_children":[1,3,-1,5,7,9,11,-1,13,-1,-1,15,-1,-1,-1,-1,17,-1,-1],"loss_changes":[1.6326432E-1,2.4896097E-1,0E0,2.2711053E-1,2.0648849E-1,1.2332654E-1,3.4480155E-1,0E0,3.542626E-1,0E0,0E0,1.13755554E-1,0E0,0E0,0E0,0E0,7.9050675E-2,0E0,0E0],"parents":[2147483647,0,0,1,1,3,3,4,4,5,5,6,6,8,8,11,11,16,16],"right_children":[2,4,-1,6,8,10,12,-1,14,-1,-1,16,-1,-1,-1,-1,18,-1,-1],"split_conditions":[1.2845908E0,-1.028245E-1,6.5786555E-2,-6.884451E-1,-3.0113292E-1,-8.979167E-1,-8.3111025E-2,2.0301959E-2,-1.9044456E-1,4.737412E-3,1.23489946E-1,-1.1110105E-1,-1.04328826E-1,2.0948168E-2,-1.4620984E-1,7.9949334E-2,-1.0418385E-1,-4.888319E-2,3.3130966E-2],"split_indices":[2,4,0,6,13,4,13,0,3,0,0,5,0,0,0,0,6,0,0],"split_type":[0,0,0,0,0,0,0,0,0,0,0,0,0,0,0,0,0,0,0],"sum_hessian":[1.4793835E1,1.3115501E1,1.6783336E0,7.715258E0,5.4002433E0,2.5205166E0,5.1947417E0,1.691884E0,3.708359E0,1.3740411E0,1.1464757E0,3.6473312E0,1.5474102E0,1.4007987E0,2.3075604E0,1.3694006E0,2.2779307E0,1.1341916E0,1.1437391E0],"tree_param":{"num_deleted":"0","num_feature":"14","num_nodes":"19","size_leaf_vector":"1"}},{"base_weights":[-2.7919407E-3,-9.759187E-2,1.009322E-1,2.8800806E-2,-2.6762265E-1,2.9759678E-1,-2.8149368E-2,-1.6320826E-1,1.2828183E-1,3.3958983E-2,-1.4934619E-1,-2.6182807E-3,1.4337963E-1,8.487899E-2,-1.831108E-1,2.8355893E-2,-2.608268E-1,3.5498696E-3,-8.6674176E-2,-1.3907317E-3,-1.1470915E-1],"categories":[],"categories_nodes":[],"categories_segments":[],"categories_sizes":[],"default_left":[0,0,0,0,0,0,0,0,0,0,0,0,0,0,0,0,0,0,0,0,0],"id":29,"left_children":[1,3,5,7,9,11,13,15,-1,-1,-1,-1,-1,-1,17,-1,19,-1,-1,-1,-1],"loss_changes":[1.6149281E-1,1.9179468E-1,2.078036E-1,5.1516837E-1,3.850558E-1,1.8090963E-1,3.2447752E-1,1.4163822E-1,0E0,0E0,0E0,0E0,0E0,0E0,9.381527E-2,0E0,1.1151661E-1,0E0,0E0,0E0,0E0],"parents":[2147483647,0,0,1,1,2,2,3,3,4,4,5,5,6,6,7,7,14,14,16,16],"right_children":[2,4,6,8,10,12,14,16,-1,-1,-1,-1,-1,-1,18,-1,20,-1,-1,-1,-1],"split_conditions":[1.745374E-1,-9.745457E-2,6.694638E-1,-1.7777842E-1,-8.5577434E-1,-2.6957712E-1,-3.0113292E-1,-7.8191286E-1,1.2828183E-1,3.3958983E-2,-1.4934619E-1,-2.6182807E-3,1.4337963E-1,8.487899E-2,-5.5166686E-1,2.8355893E-2,-4.5269057E-1,3.5498696E-3,-8.6674176E-2,-1.3907317E-3,-1.1470915E-1],"split_indices":[5,13,5,13,5,13,13,2,0,0,0,0,0,0,4,0,6,0,0,0,0],"split_type":[0,0,0,0,0,0,0,0,0,0,0,0,0,0,0,0,0,0,0,0,0],"sum_hessian":[1.4421744E1,7.565911E0,6.855834E0,4.8163114E0,2.7495992E0,2.1994014E0,4.6564326E0,3.6498222E0,1.166489E0,1.2273853E0,1.522214E0,1.1676278E0,1.0317736E0,1.2737061E0,3.3827264E0,1.011377E0,2.6384454E0,1.5025036E0,1.8802228E0,1.1829716E0,1.4554737E0],"tree_param":{"num_deleted":"0","num_feature":"14","num_nodes":"21","size_leaf_vector":"1"}},{"base_weights":[2.281988E-3,-6.216715E-2,1.2587915E-1,1.5566124E-2,-1.02807894E-1,2.8548038E-1,-7.1518876E-2,-8.412287E-2,1.13894776E-1,1.159338E-1,1.029008E-2,4.8063904E-2,-7.9526454E-2,2.5344133E-1,-5.9954733E-2,3.749532E-1,2.3557812E-2,1.4864236E-1,8.440079E-3,-6.490211E-2,7.6656766E-2],"categories":[],"categories_nodes":[],"categories_segments":[],"categories_sizes":[],"default_left":[0,0,0,0,0,0,0,0,0,0,0,0,0,0,0,0,0,0,0,0,0],"id":30,"left_children":[1,3,5,7,-1,9,11,-1,13,-1,-1,-1,-1,15,-1,17,19,-1,-1,-1,-1],"loss_changes":[1.2715629E-1,2.3464054E-1,1.9258776E-1,2.9940912E-1,0E0,6.845799E-2,1.8793057E-1,0E0,3.8382307E-1,0E0,0E0,0E0,0E0,1.5061232E-1,0E0,1.3934445E-1,2.2449753E-1,0E0,0E0,0E0,0E0],"parents":[2147483647,0,0,1,1,2,2,3,3,5,5,6,6,8,8,13,13,15,15,16,16],"right_children":[2,4,6,8,-1,10,12,-1,14,-1,-1,-1,-1,16,-1,18,20,-1,-1,-1,-1],"split_conditions":[5.705471E-1,3.802992E-1,1.1032413E0,-9.1394943E-1,-1.02807894E-1,9.180725E-1,-3.336577E-1,-8.412287E-2,6.694638E-1,1.159338E-1,1.029008E-2,4.8063904E-2,-7.9526454E-2,-1.1932077E-2,-5.9954733E-2,-1.0032328E-1,8.644598E-1,1.4864236E-1,8.440079E-3,-6.490211E-2,7.6656766E-2],"split_indices":[3,3,3,6,0,11,4,0,5,0,0,0,0,6,0,13,6,0,0,0,0],"split_type":[0,0,0,0,0,0,0,0,0,0,0,0,0,0,0,0,0,0,0,0,0],"sum_hessian":[1.3980513E1,9.515644E0,4.4648685E0,8.190563E0,1.3250815E0,2.2220602E0,2.242808E0,1.5807235E0,6.6098394E0,1.2008425E0,1.0212178E0,1.0992094E0,1.1435987E0,4.7080173E0,1.9018221E0,2.6671546E0,2.0408628E0,1.6612426E0,1.005912E0,1.036387E0,1.0044758E0],"tree_param":{"num_deleted":"0","num_feature":"14","num_nodes":"21","size_leaf_vector":"1"}},{"base_weights":[3.2468042E-3,-9.0619676E-2,1.094927E-1,-3.217773E-3,-7.631289E-2,1.01905674E-1,5.488237E-3,1.3847895E-1,-6.651947E-2,-1.1985025E-1,6.880856E-2,2.3889919E-1,-2.9690463E-2,-2.784497E-1,6.272808E-2,6.5219766E-3,1.0047366E-1,-1.389045E-1,-1.2257932E-3],"categories":[],"categories_nodes":[],"categories_segments":[],"categories_sizes":[],"default_left":[0,0,0,0,0,0,0,0,0,0,0,0,0,0,0,0,0,0,0],"id":31,"left_children":[1,3,5,7,-1,-1,9,11,-1,13,-1,15,-1,17,-1,-1,-1,-1,-1],"loss_changes":[1.556675E-1,1.18065625E-1,1.7309384E-1,2.2974935E-1,0E0,0E0,1.972527E-1,1.3130802E-1,0E0,2.9483327E-1,0E0,6.4989224E-2,0E0,1.7477736E-1,0E0,0E0,0E0,0E0,0E0],"parents":[2147483647,0,0,1,1,2,2,3,3,6,6,7,7,9,9,11,11,13,13],"right_children":[2,4,6,8,-1,-1,10,12,-1,14,-1,16,-1,18,-1,-1,-1,-1,-1],"split_conditions":[2.1456821E-1,3.0754566E-1,5.386319E-1,-2.0668583E-1,-7.631289E-2,1.01905674E-1,9.129934E-1,2.5133902E-1,-6.651947E-2,1.3944536E0,6.880856E-2,-9.53206E-2,-2.9690463E-2,-1.5030974E-1,6.272808E-2,6.5219766E-3,1.0047366E-1,-1.389045E-1,-1.2257932E-3],"split_indices":[5,4,5,6,0,0,3,2,0,5,0,3,0,6,0,0,0,0,0],"split_type":[0,0,0,0,0,0,0,0,0,0,0,0,0,0,0,0,0,0,0],"sum_hessian":[1.3614094E1,7.306234E0,6.30786E0,5.4285183E0,1.877716E0,1.2578332E0,5.050027E0,3.5152802E0,1.9132379E0,3.535362E0,1.5146648E0,2.4661784E0,1.0491018E0,2.4888654E0,1.0464966E0,1.1320865E0,1.3340919E0,1.0768619E0,1.4120035E0],"tree_param":{"num_deleted":"0","num_feature":"14","num_nodes":"19","size_leaf_vector":"1"}},{"base_weights":[4.061661E-3,-6.1970975E-2,4.6211027E-2,9.145701E-2,-2.4392512E-2,-8.724012E-2,6.690296E-2,-2.6893762E-1,7.314375E-2,-8.4640365E-3,-1.5346451E-1,8.222324E-2,-5.3247713E-2,-5.476458E-2,4.8567794E-2,4.697107E-2,-4.8720386E-2],"categories":[],"categories_nodes":[],"categories_segments":[],"categories_sizes":[],"default_left":[0,0,0,0,0,0,0,0,0,0,0,0,0,0,0,0,0],"id":32,"left_children":[1,-1,3,-1,5,7,-1,9,11,13,-1,-1,15,-1,-1,-1,-1],"loss_changes":[1.363366E-1,0E0,2.396713E-1,0E0,1.8918711E-1,2.942899E-1,0E0,2.8838876E-1,1.6167909E-1,1.2595552E-1,0E0,0E0,1.2602785E-1,0E0,0E0,0E0,0E0],"parents":[2147483647,0,0,2,2,4,4,5,5,7,7,8,8,9,9,12,12],"right_children":[2,-1,4,-1,6,8,-1,10,12,14,-1,-1,16,-1,-1,-1,-1],"split_conditions":[-5.2070576E-1,-6.1970975E-2,-4.6573764E-1,9.145701E-2,1.2845908E0,-3.0541396E-1,6.690296E-2,-6.8069785E-3,-5.388428E-1,-7.055557E-1,-1.5346451E-1,8.222324E-2,-4.275487E-1,-5.476458E-2,4.8567794E-2,4.697107E-2,-4.8720386E-2],"split_indices":[7,0,7,0,2,7,0,6,4,4,0,0,5,0,0,0,0],"split_type":[0,0,0,0,0,0,0,0,0,0,0,0,0,0,0,0,0],"sum_hessian":[1.3281479E1,1.5641422E0,1.1717337E1,1.8011653E0,9.916171E0,8.423679E0,1.4924915E0,3.6320848E0,4.7915945E0,2.2506318E0,1.3814532E0,1.3990085E0,3.3925862E0,1.0777403E0,1.1728914E0,1.0123042E0,2.380282E0],"tree_param":{"num_deleted":"0","num_feature":"14","num_nodes":"17","size_leaf_vector":"1"}},{"base_weights":[3.6738815E-3,8.905712E-2,-9.707875E-2,-1.4697248E-2,9.754943E-2,-1.9874589E-1,5.6143366E-2,-6.44949E-2,6.5768436E-2,2.3419602E-2,-2.7694732E-1,7.753885E-2,-5.2207634E-2,-1.3503496E-1,-6.2388845E-2,5.551019E-2,-6.483829E-2,4.3415375E-2,-6.979066E-2],"categories":[],"categories_nodes":[],"categories_segments":[],"categories_sizes":[],"default_left":[0,0,0,0,0,0,0,0,0,0,0,0,0,0,0,0,0,0,0],"id":33,"left_children":[1,3,5,7,-1,9,-1,-1,11,-1,13,-1,15,-1,17,-1,-1,-1,-1],"loss_changes":[1.2900062E-1,2.0307013E-1,2.3646596E-1,1.20184734E-1,0E0,1.4206915E-1,0E0,0E0,1.37616E-1,0E0,1.4128673E-1,0E0,2.0404226E-1,0E0,1.4638439E-1,0E0,0E0,0E0,0E0],"parents":[2147483647,0,0,1,1,2,2,3,3,5,5,8,8,10,10,12,12,14,14],"right_children":[2,4,6,8,-1,10,-1,-1,12,-1,14,-1,16,-1,18,-1,-1,-1,-1],"split_conditions":[9.180725E-1,4.954527E-1,8.040539E-2,-5.2070576E-1,9.754943E-2,-7.1065414E-1,5.6143366E-2,-6.44949E-2,-9.9568915E-1,2.3419602E-2,6.7683555E-2,7.753885E-2,-4.3219018E-1,-1.3503496E-1,-3.741241E-1,5.551019E-2,-6.483829E-2,4.3415375E-2,-6.979066E-2],"split_indices":[11,6,13,7,0,2,0,0,2,0,5,0,6,0,7,0,0,0,0],"split_type":[0,0,0,0,0,0,0,0,0,0,0,0,0,0,0,0,0,0,0],"sum_hessian":[1.299057E1,7.0944395E0,5.8961306E0,5.5800934E0,1.5143459E0,4.564236E0,1.3318946E0,1.1201679E0,4.4599257E0,1.0057833E0,3.5584528E0,1.2414368E0,3.218489E0,1.361621E0,2.196832E0,1.2624856E0,1.9560032E0,1.0587742E0,1.1380576E0],"tree_param":{"num_deleted":"0","num_feature":"14","num_nodes":"19","size_leaf_vector":"1"}},{"base_weights":[3.6698128E-3,-1.0419795E-1,7.501701E-2,-2.6521066E-1,5.6965508E-2,-9.8034576E-2,2.2235657E-1,1.9767163E-2,-1.430202E-1,7.7165514E-2,-5.043924E-2,7.079784E-2,-2.556445E-1,1.2897728E-1,5.8711406E-2,-1.13546945E-1,5.679685E-3,7.229877E-2,-5.248834E-2],"categories":[],"categories_nodes":[],"categories_segments":[],"categories_sizes":[],"default_left":[0,0,0,0,0,0,0,0,0,0,0,0,0,0,0,0,0,0,0],"id":34,"left_children":[1,3,5,7,9,11,13,-1,-1,-1,-1,-1,15,-1,17,-1,-1,-1,-1],"loss_changes":[1.1305292E-1,1.6723229E-1,2.4647328E-1,2.4917847E-1,2.1241683E-1,3.1020316E-1,1.4681754E-1,0E0,0E0,0E0,0E0,0E0,1.3212778E-1,0E0,2.1214141E-1,0E0,0E0,0E0,0E0],"parents":[2147483647,0,0,1,1,2,2,3,3,4,4,5,5,6,6,12,12,14,14],"right_children":[2,4,6,8,10,12,14,-1,-1,-1,-1,-1,16,-1,18,-1,-1,-1,-1],"split_conditions":[-2.3985402E-1,-5.6813663E-1,-1.4518465E-1,-4.8856625E-1,9.180725E-1,-7.448212E-1,2.9068712E-2,1.9767163E-2,-1.430202E-1,7.7165514E-2,-5.043924E-2,7.079784E-2,-6.43523E-2,1.2897728E-1,9.180725E-1,-1.13546945E-1,5.679685E-3,7.229877E-2,-5.248834E-2],"split_indices":[5,2,6,6,11,6,6,0,0,0,0,0,4,0,11,0,0,0,0],"split_type":[0,0,0,0,0,0,0,0,0,0,0,0,0,0,0,0,0,0,0],"sum_hessian":[1.2674045E1,4.8623557E0,7.8116894E0,2.1093638E0,2.7529917E0,3.7462828E0,4.065407E0,1.090648E0,1.0187159E0,1.3813736E0,1.3716179E0,1.0415574E0,2.7047253E0,1.0748684E0,2.9905381E0,1.6072125E0,1.0975127E0,1.6623911E0,1.328147E0],"tree_param":{"num_deleted":"0","num_feature":"14","num_nodes":"19","size_leaf_vector":"1"}},{"base_weights":[3.4905344E-3,-3.6619306E-2,6.491612E-2,4.128182E-2,-1.775122E-1,-6.263051E-2,1.2525444E-1,-9.190673E-2,9.976007E-4,2.4042171E-1,-6.972181E-2,-8.790656E-3,3.4199116E-1,1.21961124E-1,2.2627924E-2],"categories":[],"categories_nodes":[],"categories_segments":[],"categories_sizes":[],"default_left":[0,0,0,0,0,0,0,0,0,0,0,0,0,0,0],"id":35,"left_children":[1,3,-1,5,7,-1,9,-1,-1,11,-1,-1,13,-1,-1],"loss_changes":[1.21333286E-1,1.3937409E-1,0E0,2.0585617E-1,1.0521993E-1,0E0,3.4552747E-1,0E0,0E0,1.6920933E-1,0E0,0E0,4.3321908E-2,0E0,0E0],"parents":[2147483647,0,0,1,1,3,3,4,4,6,6,9,9,12,12],"right_children":[2,4,-1,6,8,-1,10,-1,-1,12,-1,-1,14,-1,-1],"split_conditions":[1.6947258E0,1.2103587E0,6.491612E-2,-3.1547648E-1,-1.9499068E-1,-6.263051E-2,1.1527903E0,-9.190673E-2,9.976007E-4,-5.082314E-1,-6.972181E-2,-8.790656E-3,7.319213E-2,1.21961124E-1,2.2627924E-2],"split_indices":[6,12,0,13,13,0,5,0,0,5,0,0,2,0,0],"split_type":[0,0,0,0,0,0,0,0,0,0,0,0,0,0,0],"sum_hessian":[1.2280956E1,1.1030751E1,1.2502058E0,7.55855E0,3.472201E0,1.5265887E0,6.031961E0,1.6222692E0,1.849932E0,4.8107004E0,1.2212603E0,1.5106316E0,3.300069E0,2.2340257E0,1.0660433E0],"tree_param":{"num_deleted":"0","num_feature":"14","num_nodes":"15","size_leaf_vector":"1"}},{"base_weights":[9.835432E-4,-3.8015828E-2,5.5451803E-2,4.753288E-2,-1.9045952E-1,-1.345807E-1,1.3955247E-1,3.7181757E-2,-3.4828955E-1,2.258425E-2,-8.645036E-2,-9.30029E-2,2.8864092E-1,-2.9476933E-2,-1.2563266E-1,-4.0160976E-2,-1.6585627E-3,1.7034166E-2,1.0999027E-1],"categories":[],"categories_nodes":[],"categories_segments":[],"categories_sizes":[],"default_left":[0,0,0,0,0,0,0,0,0,0,0,0,0,0,0,0,0,0,0],"id":36,"left_children":[1,3,-1,5,7,9,11,-1,13,-1,-1,15,17,-1,-1,-1,-1,-1,-1],"loss_changes":[1.00658305E-1,1.6036595E-1,0E0,1.5673584E-1,2.6003128E-1,1.2716961E-1,2.3347741E-1,0E0,1.4757931E-2,0E0,0E0,1.0286348E-2,4.9261272E-2,0E0,0E0,0E0,0E0,0E0,0E0],"parents":[2147483647,0,0,1,1,3,3,4,4,5,5,6,6,8,8,11,11,12,12],"right_children":[2,4,-1,6,8,10,12,-1,14,-1,-1,16,18,-1,-1,-1,-1,-1,-1],"split_conditions":[1.2845908E0,2.4342532E-1,5.5451803E-2,5.902813E-1,-3.0113292E-1,-3.6038208E-1,-1.9212197E-1,3.7181757E-2,3.7852947E-2,2.258425E-2,-8.645036E-2,-3.553137E-1,9.643829E-1,-2.9476933E-2,-1.2563266E-1,-4.0160976E-2,-1.6585627E-3,1.7034166E-2,1.0999027E-1],"split_indices":[2,4,0,1,13,7,13,0,3,0,0,6,9,0,0,0,0,0,0],"split_type":[0,0,0,0,0,0,0,0,0,0,0,0,0,0,0,0,0,0,0],"sum_hessian":[1.205831E1,1.0602536E1,1.455773E0,7.2321663E0,3.3703701E0,2.2723987E0,4.959768E0,1.1982254E0,2.172145E0,1.1757302E0,1.0966685E0,2.0844817E0,2.8752859E0,1.0041465E0,1.1679984E0,1.0592309E0,1.0252508E0,1.1586986E0,1.7165874E0],"tree_param":{"num_deleted":"0","num_feature":"14","num_nodes":"19","size_leaf_vector":"1"}},{"base_weights":[-2.7165546E-3,-8.5165665E-2,8.857139E-2,2.775565E-2,-2.2897676E-1,-7.083226E-2,2.0880048E-1,-1.6772038E-1,1.00533366E-1,-1.3792413E-1,2.619648E-2,-8.053568E-2,3.844036E-2,1.0841871E-2,1.041267E-1,5.3502875E-3,-7.735678E-2],"categories":[],"categories_nodes":[],"categories_segments":[],"categories_sizes":[],"default_left":[0,0,0,0,0,0,0,0,0,0,0,0,0,0,0,0,0],"id":37,"left_children":[1,3,5,7,9,11,13,15,-1,-1,-1,-1,-1,-1,-1,-1,-1],"loss_changes":[1.04167596E-1,1.2417519E-1,1.4094296E-1,3.539624E-1,2.809653E-1,1.7503951E-1,8.309887E-2,6.6410825E-2,0E0,0E0,0E0,0E0,0E0,0E0,0E0,0E0,0E0],"parents":[2147483647,0,0,1,1,2,2,3,3,4,4,5,5,6,6,7,7],"right_children":[2,4,6,8,10,12,14,16,-1,-1,-1,-1,-1,-1,-1,-1,-1],"split_conditions":[1.745374E-1,-9.745457E-2,-1.5030974E-1,-1.8638456E-1,-3.8998976E-1,1.2366939E0,-2.9167193E-1,-4.6124852E-1,1.00533366E-1,-1.3792413E-1,2.619648E-2,-8.053568E-2,3.844036E-2,1.0841871E-2,1.041267E-1,5.3502875E-3,-7.735678E-2],"split_indices":[5,13,6,13,2,0,7,2,0,0,0,0,0,0,0,0,0],"split_type":[0,0,0,0,0,0,0,0,0,0,0,0,0,0,0,0,0],"sum_hessian":[1.1837699E1,6.2552085E0,5.5824904E0,3.955963E0,2.2992458E0,2.5768604E0,3.00563E0,2.6957781E0,1.2601846E0,1.0671401E0,1.2321057E0,1.117597E0,1.4592634E0,1.8976468E0,1.1079831E0,1.1436268E0,1.5521513E0],"tree_param":{"num_deleted":"0","num_feature":"14","num_nodes":"17","size_leaf_vector":"1"}},{"base_weights":[-3.0676397E-3,-9.5305234E-2,7.974762E-2,-2.769959E-1,8.785622E-2,1.7889847E-1,-5.107366E-2,1.1865742E-2,-1.2736203E-1,-3.527526E-2,6.593395E-2,-7.393315E-2,3.429681E-1,-5.249733E-2,1.9454291E-2,1.2709165E-1,2.4406556E-2],"categories":[],"categories_nodes":[],"categories_segments":[],"categories_sizes":[],"default_left":[0,0,0,0,0,0,0,0,0,0,0,0,0,0,0,0,0],"id":38,"left_children":[1,3,5,7,9,11,-1,-1,-1,-1,-1,13,15,-1,-1,-1,-1],"loss_changes":[1.0360149E-1,2.3735999E-1,2.0809425E-1,1.7812455E-1,1.3281336E-1,2.5844336E-1,0E0,0E0,0E0,0E0,0E0,5.389913E-2,4.119441E-2,0E0,0E0,0E0,0E0],"parents":[2147483647,0,0,1,1,2,2,3,3,4,4,5,5,11,11,12,12],"right_children":[2,4,6,8,10,12,-1,-1,-1,-1,-1,14,16,-1,-1,-1,-1],"split_conditions":[1.710265E-1,-1.7777842E-1,-8.3111025E-2,-3.4648177E-1,-4.3625027E-1,-4.618984E-1,-5.107366E-2,1.1865742E-2,-1.2736203E-1,-3.527526E-2,6.593395E-2,-2.5810227E-1,9.180725E-1,-5.249733E-2,1.9454291E-2,1.2709165E-1,2.4406556E-2],"split_indices":[3,13,13,4,4,4,0,0,0,0,0,13,11,0,0,0,0],"split_type":[0,0,0,0,0,0,0,0,0,0,0,0,0,0,0,0,0],"sum_hessian":[1.1567764E1,5.401211E0,6.166553E0,2.454307E0,2.9469037E0,4.6189847E0,1.5475687E0,1.0129669E0,1.4413402E0,1.1948683E0,1.7520355E0,2.0339866E0,2.584998E0,1.0259725E0,1.0080142E0,1.5023884E0,1.0826095E0],"tree_param":{"num_deleted":"0","num_feature":"14","num_nodes":"17","size_leaf_vector":"1"}},{"base_weights":[-3.631223E-3,5.3523596E-2,-3.857255E-2,-9.298821E-2,3.3665236E-2,1.0909982E-1,-1.15477376E-1,2.2268978E-1,-4.9254257E-2,5.0062284E-2,-9.397415E-2,-7.5795446E-3,3.2222825E-1,-7.1653365E-3,1.4082138E-1],"categories":[],"categories_nodes":[],"categories_segments":[],"categories_sizes":[],"default_left":[0,0,0,0,0,0,0,0,0,0,0,0,0,0,0],"id":39,"left_children":[1,-1,3,-1,5,7,9,11,-1,-1,-1,-1,13,-1,-1],"loss_changes":[8.518995E-2,0E0,2.2903998E-1,0E0,1.21825986E-1,2.5266796E-1,2.6150224E-1,1.399894E-1,0E0,0E0,0E0,0E0,2.0908979E-1,0E0,0E0],"parents":[2147483647,0,0,2,2,4,4,5,5,6,6,7,7,12,12],"right_children":[2,-1,4,-1,6,8,10,12,-1,-1,-1,-1,14,-1,-1],"split_conditions":[-1.1226593E0,5.3523596E-2,-6.660644E-1,-9.298821E-2,2.8189752E-1,9.3688256E-1,-3.0113292E-1,-2.5810227E-1,-4.9254257E-2,5.0062284E-2,-9.397415E-2,-7.5795446E-3,-4.1802096E-1,-7.1653365E-3,1.4082138E-1],"split_indices":[3,0,3,0,4,5,13,13,0,0,0,0,5,0,0],"split_type":[0,0,0,0,0,0,0,0,0,0,0,0,0,0,0],"sum_hessian":[1.1310996E1,1.1602236E0,1.0150772E1,1.4421101E0,8.708662E0,5.9617605E0,2.746902E0,4.342084E0,1.6196764E0,1.1958426E0,1.5510594E0,1.4575176E0,2.8845665E0,1.1105697E0,1.773997E0],"tree_param":{"num_deleted":"0","num_feature":"14","num_nodes":"15","size_leaf_vector":"1"}},{"base_weights":[-2.833E-3,-8.33554E-2,8.616611E-2,3.023922E-2,-1.5553385E-1,7.251482E-2,-2.025298E-2,1.2584883E-2,-2.6417193E-1,6.0453404E-2,-1.377473E-1,1.3276967E-3,-1.2940708E-1,-6.968488E-2,1.3729834E-2],"categories":[],"categories_nodes":[],"categories_segments":[],"categories_sizes":[],"default_left":[0,0,0,0,0,0,0,0,0,0,0,0,0,0,0],"id":40,"left_children":[1,3,5,-1,7,-1,9,-1,11,-1,13,-1,-1,-1,-1],"loss_changes":[9.344701E-2,1.06433064E-1,1.0768299E-1,0E0,1.2475754E-1,0E0,1.4786744E-1,0E0,1.6155648E-1,0E0,7.321029E-2,0E0,0E0,0E0,0E0],"parents":[2147483647,0,0,1,1,2,2,4,4,6,6,8,8,10,10],"right_children":[2,4,6,-1,8,-1,10,-1,12,-1,14,-1,-1,-1,-1],"split_conditions":[1.745374E-1,-9.9930674E-1,6.694638E-1,3.023922E-2,7.486547E-1,7.251482E-2,-2.8965807E-1,1.2584883E-2,-1.1932077E-2,6.0453404E-2,-3.6954343E-1,1.3276967E-3,-1.2940708E-1,-6.968488E-2,1.3729834E-2],"split_indices":[5,5,5,0,8,0,13,0,6,0,7,0,0,0,0],"split_type":[0,0,0,0,0,0,0,0,0,0,0,0,0,0,0],"sum_hessian":[1.1037332E1,5.827912E0,5.2094197E0,1.5293909E0,4.298521E0,1.5997492E0,3.6096704E0,1.743332E0,2.555189E0,1.0024765E0,2.6071942E0,1.3537682E0,1.2014207E0,1.5453591E0,1.061835E0],"tree_param":{"num_deleted":"0","num_feature":"14","num_nodes":"15","size_leaf_vector":"1"}},{"base_weights":[-3.1677124E-3,7.188274E-2,-8.877133E-2,-7.6016136E-2,1.803972E-1,-1.8695474E-1,5.2965395E-2,-7.282575E-2,2.5413789E-2,1.0020026E-1,-2.1597717E-2,-1.00404814E-1,-2.8553756E-2,-3.8268883E-2,3.0654795E-2],"categories":[],"categories_nodes":[],"categories_segments":[],"categories_sizes":[],"default_left":[0,0,0,0,0,0,0,0,0,0,0,0,0,0,0],"id":41,"left_children":[1,3,5,7,9,11,-1,-1,-1,-1,-1,-1,13,-1,-1],"loss_changes":[8.2594655E-2,1.2402831E-1,1.8902755E-1,1.173754E-1,1.8924092E-1,1.0410333E-1,0E0,0E0,0E0,0E0,0E0,0E0,5.752624E-2,0E0,0E0],"parents":[2147483647,0,0,1,1,2,2,3,3,4,4,5,5,12,12],"right_children":[2,4,6,8,10,12,-1,-1,-1,-1,-1,-1,14,-1,-1],"split_conditions":[9.180725E-1,-6.03766E-1,8.040539E-2,-2.3985402E-1,9.643829E-1,9.643829E-1,5.2965395E-2,-7.282575E-2,2.5413789E-2,1.0020026E-1,-2.1597717E-2,-1.00404814E-1,-1.4518465E-1,-3.8268883E-2,3.0654795E-2],"split_indices":[11,2,13,5,9,9,0,0,0,0,0,0,6,0,0],"split_type":[0,0,0,0,0,0,0,0,0,0,0,0,0,0,0],"sum_hessian":[1.0862783E1,5.8735795E0,4.989204E0,2.6124487E0,3.261131E0,3.8572032E0,1.1320009E0,1.0317796E0,1.5806689E0,1.826297E0,1.434834E0,1.42E0,2.4372034E0,1.4007E0,1.0365033E0],"tree_param":{"num_deleted":"0","num_feature":"14","num_nodes":"15","size_leaf_vector":"1"}},{"base_weights":[-4.3637184E-3,-4.594231E-2,4.0395584E-2,3.277746E-2,-9.291243E-2,-5.5060275E-2,1.795676E-1,-1.9976471E-1,8.778431E-2,7.611924E-2,5.9075966E-3,-1.36802E-2,-7.988975E-2,-3.6868054E-2,7.562003E-2],"categories":[],"categories_nodes":[],"categories_segments":[],"categories_sizes":[],"default_left":[0,0,0,0,0,0,0,0,0,0,0,0,0,0,0],"id":42,"left_children":[1,3,-1,5,-1,7,9,11,13,-1,-1,-1,-1,-1,-1],"loss_changes":[7.3557965E-2,2.1193005E-1,0E0,1.1804672E-1,0E0,1.418359E-1,3.5021693E-2,2.1629184E-2,1.5975994E-1,0E0,0E0,0E0,0E0,0E0,0E0],"parents":[2147483647,0,0,1,1,3,3,5,5,6,6,7,7,8,8],"right_children":[2,4,-1,6,-1,8,10,12,14,-1,-1,-1,-1,-1,-1],"split_conditions":[1.115462E0,3.0754566E-1,4.0395584E-2,6.466463E-1,-9.291243E-2,-1.7777842E-1,1.2366939E0,-6.0296315E-1,-6.3939536E-1,7.611924E-2,5.9075966E-3,-1.36802E-2,-7.988975E-2,-3.6868054E-2,7.562003E-2],"split_indices":[4,4,0,3,0,13,0,4,2,0,0,0,0,0,0],"split_type":[0,0,0,0,0,0,0,0,0,0,0,0,0,0,0],"sum_hessian":[1.0655858E1,8.71791E0,1.9379475E0,7.3885593E0,1.3293511E0,5.01346E0,2.375099E0,2.2925675E0,2.720893E0,1.2214439E0,1.153655E0,1.1992372E0,1.0933301E0,1.302495E0,1.4183979E0],"tree_param":{"num_deleted":"0","num_feature":"14","num_nodes":"15","size_leaf_vector":"1"}},{"base_weights":[-5.4585533E-3,-7.891802E-2,8.363219E-2,-1.5964441E-1,4.3007024E-2,1.936712E-1,-5.770082E-2,-1.0182737E-1,-8.465742E-6,9.587907E-3,8.26469E-2,4.3283753E-2,-6.541254E-2,-5.51382E-2,4.492951E-2],"categories":[],"categories_nodes":[],"categories_segments":[],"categories_sizes":[],"default_left":[0,0,0,0,0,0,0,0,0,0,0,0,0,0,0],"id":43,"left_children":[1,3,5,7,-1,9,11,-1,13,-1,-1,-1,-1,-1,-1],"loss_changes":[8.180884E-2,1.4513372E-1,9.94934E-2,1.5700975E-1,0E0,3.6477968E-2,1.3691947E-1,0E0,1.3481879E-1,0E0,0E0,0E0,0E0,0E0,0E0],"parents":[2147483647,0,0,1,1,2,2,3,3,5,5,6,6,8,8],"right_children":[2,4,6,8,-1,10,12,-1,14,-1,-1,-1,-1,-1,-1],"split_conditions":[1.2366939E0,8.178694E-1,-2.294152E-1,9.643829E-1,4.3007024E-2,-3.553137E-1,3.7852947E-2,-1.0182737E-1,-3.604388E-1,9.587907E-3,8.26469E-2,4.3283753E-2,-6.541254E-2,-5.51382E-2,4.492951E-2],"split_indices":[0,3,13,9,0,6,3,0,6,0,0,0,0,0,0],"split_type":[0,0,0,0,0,0,0,0,0,0,0,0,0,0,0],"sum_hessian":[1.0491799E1,5.8129425E0,4.6788573E0,4.4709425E0,1.342E0,2.4224606E0,2.2563965E0,1.5730971E0,2.8978455E0,1.2810751E0,1.1413856E0,1.0428727E0,1.2135239E0,1.199188E0,1.6986575E0],"tree_param":{"num_deleted":"0","num_feature":"14","num_nodes":"15","size_leaf_vector":"1"}},{"base_weights":[-4.0468695E-3,5.1486097E-2,-1.0096921E-1,-4.1910455E-2,8.807644E-2,-8.2298756E-2,3.213144E-2,-1.3663767E-1,6.546187E-2,-2.2072077E-1,2.731728E-2,-1.6366275E-2,-9.771254E-2],"categories":[],"categories_nodes":[],"categories_segments":[],"categories_sizes":[],"default_left":[0,0,0,0,0,0,0,0,0,0,0,0,0],"id":44,"left_children":[1,3,5,7,-1,-1,-1,9,-1,11,-1,-1,-1],"loss_changes":[6.611537E-2,1.8997441E-1,1.9027303E-1,1.9108985E-1,0E0,0E0,0E0,1.2372939E-1,0E0,5.6289494E-2,0E0,0E0,0E0],"parents":[2147483647,0,0,1,1,2,2,3,3,7,7,9,9],"right_children":[2,4,6,8,-1,-1,-1,10,-1,12,-1,-1,-1],"split_conditions":[-9.745457E-2,-1.7777842E-1,1.0909249E-1,9.6936727E-1,8.807644E-2,-8.2298756E-2,3.213144E-2,-1.1760621E-1,6.546187E-2,-9.0000436E-2,2.731728E-2,-1.6366275E-2,-9.771254E-2],"split_indices":[13,13,13,5,0,0,0,7,0,4,0,0,0],"split_type":[0,0,0,0,0,0,0,0,0,0,0,0,0],"sum_hessian":[1.031782E1,6.8575077E0,3.4603117E0,5.545204E0,1.3123037E0,1.7139157E0,1.746396E0,4.4128675E0,1.1323367E0,3.2451372E0,1.1677303E0,1.8448592E0,1.4002779E0],"tree_param":{"num_deleted":"0","num_feature":"14","num_nodes":"13","size_leaf_vector":"1"}},{"base_weights":[-1.5877517E-3,6.9583684E-2,-8.1987046E-2,1.3808133E-1,-2.3581438E-2,6.352177E-2,-8.414361E-2,-4.769914E-3,2.0652963E-1,-6.065231E-2,6.720773E-2,1.7489998E-3,8.723627E-2,-4.350347E-2,1.5813908E-2],"categories":[],"categories_nodes":[],"categories_segments":[],"categories_sizes":[],"default_left":[0,0,0,0,0,0,0,0,0,0,0,0,0,0,0],"id":45,"left_children":[1,3,5,7,-1,9,-1,-1,11,13,-1,-1,-1,-1,-1],"loss_changes":[6.94767E-2,7.635081E-2,1.8222037E-1,5.3616926E-2,0E0,9.5298514E-2,0E0,0E0,5.541931E-2,3.7275743E-2,0E0,0E0,0E0,0E0,0E0],"parents":[2147483647,0,0,1,1,2,2,3,3,5,5,8,8,9,9],"right_children":[2,4,6,8,-1,10,-1,-1,12,14,-1,-1,-1,-1,-1],"split_conditions":[9.180725E-1,-9.745457E-2,-6.263809E-2,1.2366939E0,-2.3581438E-2,-3.145753E-1,-8.414361E-2,-4.769914E-3,-2.3985402E-1,2.8517523E-1,6.720773E-2,1.7489998E-3,8.723627E-2,-4.350347E-2,1.5813908E-2],"split_indices":[11,13,7,0,0,7,0,0,5,3,0,0,0,0,0],"split_type":[0,0,0,0,0,0,0,0,0,0,0,0,0,0,0],"sum_hessian":[1.0144749E1,5.452545E0,4.692204E0,3.7755604E0,1.6769848E0,3.0998018E0,1.5924023E0,1.398104E0,2.3774564E0,2.0984485E0,1.0013533E0,1.0191251E0,1.3583313E0,1.0430927E0,1.0553557E0],"tree_param":{"num_deleted":"0","num_feature":"14","num_nodes":"15","size_leaf_vector":"1"}},{"base_weights":[3.4349374E-4,-3.32385E-2,5.02333E-2,5.7338372E-2,-1.705363E-1,-1.03727974E-1,1.6181575E-1,3.867136E-2,-3.0792192E-1,4.2888496E-2,-9.923632E-2,-2.5342459E-2,2.7803022E-1,-1.254629E-1,-1.5370826E-2,2.7572736E-2,9.819765E-2],"categories":[],"categories_nodes":[],"categories_segments":[],"categories_sizes":[],"default_left":[0,0,0,0,0,0,0,0,0,0,0,0,0,0,0,0,0],"id":46,"left_children":[1,3,-1,5,7,9,11,-1,13,-1,-1,-1,15,-1,-1,-1,-1],"loss_changes":[6.734215E-2,1.3415007E-1,0E0,1.307778E-1,2.1358041E-1,2.3071223E-1,1.5227282E-1,0E0,6.8951845E-2,0E0,0E0,0E0,1.014173E-4,0E0,0E0,0E0,0E0],"parents":[2147483647,0,0,1,1,3,3,4,4,5,5,6,6,8,8,12,12],"right_children":[2,4,-1,6,8,10,12,-1,14,-1,-1,-1,16,-1,-1,-1,-1],"split_conditions":[1.4271084E0,-6.8069785E-3,5.02333E-2,7.486547E-1,7.486547E-1,3.802992E-1,-2.8556854E-1,3.867136E-2,1.6969757E-1,4.2888496E-2,-9.923632E-2,-2.5342459E-2,3.802992E-1,-1.254629E-1,-1.5370826E-2,2.7572736E-2,9.819765E-2],"split_indices":[2,6,0,8,8,3,3,0,5,0,0,0,3,0,0,0,0],"split_type":[0,0,0,0,0,0,0,0,0,0,0,0,0,0,0,0,0],"sum_hessian":[1.0008762E1,9.000943E0,1.0078185E0,5.7740912E0,3.2268522E0,2.274621E0,3.4994702E0,1.0342877E0,2.1925645E0,1.2677019E0,1.006919E0,1.2094415E0,2.2900288E0,1.0934752E0,1.0990893E0,1.0793298E0,1.210699E0],"tree_param":{"num_deleted":"0","num_feature":"14","num_nodes":"17","size_leaf_vector":"1"}},{"base_weights":[-8.8574574E-4,4.891268E-2,-3.5020657E-2,2.3094239E-2,-8.1643656E-2,1.1609435E-1,-1.37706E-1,2.5499E-1,-3.3537507E-2,-7.789745E-2,7.960699E-3,-1.04627265E-2,1.1362342E-1],"categories":[],"categories_nodes":[],"categories_segments":[],"categories_sizes":[],"default_left":[0,0,0,0,0,0,0,0,0,0,0,0,0],"id":47,"left_children":[1,-1,3,5,-1,7,9,11,-1,-1,-1,-1,-1],"loss_changes":[6.6176996E-2,0E0,1.4087749E-1,1.4707987E-1,0E0,2.2147602E-1,8.039108E-2,1.6002172E-1,0E0,0E0,0E0,0E0,0E0],"parents":[2147483647,0,0,2,2,3,3,5,5,6,6,7,7],"right_children":[2,-1,4,6,-1,8,10,12,-1,-1,-1,-1,-1],"split_conditions":[-1.1226593E0,4.891268E-2,2.2677867E0,2.3943614E-2,-8.1643656E-2,-2.4747226E-1,-3.18731E-1,7.486547E-1,-3.3537507E-2,-7.789745E-2,7.960699E-3,-1.04627265E-2,1.1362342E-1],"split_indices":[3,0,10,6,0,2,2,8,0,0,0,0,0],"split_type":[0,0,0,0,0,0,0,0,0,0,0,0,0],"sum_hessian":[9.806065E0,1.0391738E0,8.7668915E0,7.7661576E0,1.0007336E0,5.096549E0,2.6696086E0,3.0926526E0,2.0038962E0,1.1986438E0,1.4709648E0,1.1401982E0,1.9524543E0],"tree_param":{"num_deleted":"0","num_feature":"14","num_nodes":"13","size_leaf_vector":"1"}},{"base_weights":[-3.5240387E-3,7.072913E-2,-8.735832E-2,1.3952115E-1,-2.3585917E-2,-1.6918439E-1,4.0844753E-2,-4.821064E-3,1.8769044E-1,-8.608304E-2,-3.4820247E-2,8.7365784E-2,9.220847E-3,2.810469E-2,-4.1317184E-2],"categories":[],"categories_nodes":[],"categories_segments":[],"categories_sizes":[],"default_left":[0,0,0,0,0,0,0,0,0,0,0,0,0,0,0],"id":48,"left_children":[1,3,5,7,-1,9,-1,-1,11,-1,13,-1,-1,-1,-1],"loss_changes":[7.239791E-2,7.460417E-2,1.22596174E-1,3.7499078E-2,0E0,6.011671E-2,0E0,0E0,4.9418867E-2,0E0,5.5318173E-2,0E0,0E0,0E0,0E0],"parents":[2147483647,0,0,1,1,2,2,3,3,5,5,8,8,10,10],"right_children":[2,4,6,8,-1,10,-1,-1,12,-1,14,-1,-1,-1,-1],"split_conditions":[9.180725E-1,-9.745457E-2,5.7455722E-2,-6.884451E-1,-2.3585917E-2,9.643829E-1,4.0844753E-2,-4.821064E-3,-2.982642E-1,-8.608304E-2,-9.53206E-2,8.7365784E-2,9.220847E-3,2.810469E-2,-4.1317184E-2],"split_indices":[11,13,13,6,0,9,0,0,13,0,3,0,0,0,0],"split_type":[0,0,0,0,0,0,0,0,0,0,0,0,0,0,0],"sum_hessian":[9.637677E0,5.193789E0,4.443888E0,3.6009488E0,1.5928403E0,3.4308884E0,1.0129998E0,1.0088022E0,2.5921466E0,1.2232473E0,2.2076411E0,1.046454E0,1.5456927E0,1.0215619E0,1.1860793E0],"tree_param":{"num_deleted":"0","num_feature":"14","num_nodes":"15","size_leaf_vector":"1"}},{"base_weights":[-1.6400628E-3,-7.589751E-2,6.635261E-2,-1.8973656E-1,3.8311996E-2,1.3861942E-1,-3.668718E-2,-1.009042E-1,-1.6428393E-3,-1.910924E-2,2.7874276E-1,2.3425255E-2,1.0286065E-1],"categories":[],"categories_nodes":[],"categories_segments":[],"categories_sizes":[],"default_left":[0,0,0,0,0,0,0,0,0,0,0,0,0],"id":49,"left_children":[1,3,5,7,-1,9,-1,-1,-1,-1,11,-1,-1],"loss_changes":[5.817342E-2,1.516386E-1,9.912277E-2,1.0426989E-1,0E0,1.5458944E-1,0E0,0E0,0E0,0E0,1.2314588E-2,0E0,0E0],"parents":[2147483647,0,0,1,1,2,2,3,3,5,5,10,10],"right_children":[2,4,6,8,-1,10,-1,-1,-1,-1,12,-1,-1],"split_conditions":[1.710265E-1,4.6511525E-1,-8.3111025E-2,-1.7777842E-1,3.8311996E-2,-4.618984E-1,-3.668718E-2,-1.009042E-1,-1.6428393E-3,-1.910924E-2,1.2366939E0,2.3425255E-2,1.0286065E-1],"split_indices":[3,2,13,13,0,4,0,0,0,0,0,0,0],"split_type":[0,0,0,0,0,0,0,0,0,0,0,0,0],"sum_hessian":[9.524424E0,4.4969115E0,5.027512E0,2.927949E0,1.5689626E0,3.8267212E0,1.2007911E0,1.1709036E0,1.7570454E0,1.7890387E0,2.0376825E0,1.0305691E0,1.0071133E0],"tree_param":{"num_deleted":"0","num_feature":"14","num_nodes":"13","size_leaf_vector":"1"}},{"base_weights":[-5.973732E-4,6.7575134E-2,-7.8044906E-2,-1.917866E-3,6.2289067E-2,5.2651383E-2,-7.553901E-2,-1.0679114E-1,4.8639033E-2,-2.1208696E-2,5.312652E-2,-6.8429515E-2,1.541519E-2],"categories":[],"categories_nodes":[],"categories_segments":[],"categories_sizes":[],"default_left":[0,0,0,0,0,0,0,0,0,0,0,0,0],"id":50,"left_children":[1,3,5,7,-1,9,-1,11,-1,-1,-1,-1,-1],"loss_changes":[6.0195364E-2,5.9460297E-2,1.343829E-1,1.0413904E-1,0E0,7.1937576E-2,0E0,8.2360476E-2,0E0,0E0,0E0,0E0,0E0],"parents":[2147483647,0,0,1,1,2,2,3,3,5,5,7,7],"right_children":[2,4,6,8,-1,10,-1,12,-1,-1,-1,-1,-1],"split_conditions":[9.180725E-1,-1.0386418E-1,-6.263809E-2,6.656711E-1,6.2289067E-2,-1.7204101E-1,-7.553901E-2,1.2366939E0,4.8639033E-2,-2.1208696E-2,5.312652E-2,-6.8429515E-2,1.541519E-2],"split_indices":[11,7,7,3,0,13,0,0,0,0,0,0,0],"split_type":[0,0,0,0,0,0,0,0,0,0,0,0,0],"sum_hessian":[9.402203E0,5.0683255E0,4.3338766E0,4.046718E0,1.0216076E0,2.8711603E0,1.4627165E0,2.6815014E0,1.3652165E0,1.658783E0,1.2123773E0,1.2674271E0,1.4140744E0],"tree_param":{"num_deleted":"0","num_feature":"14","num_nodes":"13","size_leaf_vector":"1"}},{"base_weights":[8.5727737E-4,3.717225E-2,-3.8274035E-2,-1.1566438E-1,1.0052312E-1,2.6080793E-2,-7.841553E-2,-1.1274925E-1,2.1903181E-1,1.6572865E-2,-6.8813905E-2,3.121352E-1,-3.3285134E-3,1.24496736E-1,2.3762934E-2],"categories":[],"categories_nodes":[],"categories_segments":[],"categories_sizes":[],"default_left":[0,0,0,0,0,0,0,0,0,0,0,0,0,0,0],"id":51,"left_children":[1,3,-1,5,7,-1,-1,9,11,-1,-1,13,-1,-1,-1],"loss_changes":[5.266433E-2,9.667736E-2,0E0,1.1244553E-1,1.951741E-1,0E0,0E0,7.281087E-2,1.03640944E-1,0E0,0E0,4.770136E-2,0E0,0E0,0E0],"parents":[2147483647,0,0,1,1,3,3,4,4,7,7,8,8,11,11],"right_children":[2,4,-1,6,8,-1,-1,10,12,-1,-1,14,-1,-1,-1],"split_conditions":[1.1032413E0,-6.935702E-1,-3.8274035E-2,-8.1754225E-1,-4.3625027E-1,2.6080793E-2,-7.841553E-2,-2.0646551E-1,6.4270526E-1,1.6572865E-2,-6.8813905E-2,8.568318E-3,-3.3285134E-3,1.24496736E-1,2.3762934E-2],"split_indices":[3,6,0,2,4,0,0,13,5,0,0,6,0,0,0],"split_type":[0,0,0,0,0,0,0,0,0,0,0,0,0,0,0],"sum_hessian":[9.274407E0,7.784081E0,1.4903258E0,2.0390394E0,5.745042E0,1.0218015E0,1.0172379E0,2.0694273E0,3.6756144E0,1.0636746E0,1.0057528E0,2.363174E0,1.3124405E0,1.0970881E0,1.2660857E0],"tree_param":{"num_deleted":"0","num_feature":"14","num_nodes":"15","size_leaf_vector":"1"}},{"base_weights":[1.0651706E-3,6.769908E-2,-7.481214E-2,1.15644544E-1,-2.3713183E-2,-1.9010597E-1,6.614141E-2,-1.94697E-2,1.9170918E-1,-1.682189E-2,-6.9554634E-2,4.292223E-2,-1.2795476E-2,8.968E-2,-8.11183E-3],"categories":[],"categories_nodes":[],"categories_segments":[],"categories_sizes":[],"default_left":[0,0,0,0,0,0,0,0,0,0,0,0,0,0,0],"id":52,"left_children":[1,3,5,7,-1,9,11,-1,13,-1,-1,-1,-1,-1,-1],"loss_changes":[5.632098E-2,5.0810263E-2,9.732531E-2,7.932192E-2,0E0,4.4936836E-3,3.19509E-2,0E0,9.438287E-2,0E0,0E0,0E0,0E0,0E0,0E0],"parents":[2147483647,0,0,1,1,2,2,3,3,5,5,6,6,8,8],"right_children":[2,4,6,8,-1,10,12,-1,14,-1,-1,-1,-1,-1,-1],"split_conditions":[9.180725E-1,1.1032413E0,6.7683555E-2,-6.935702E-1,-2.3713183E-2,-4.9687788E-1,8.859941E-1,-1.94697E-2,6.4270526E-1,-1.682189E-2,-6.9554634E-2,4.292223E-2,-1.2795476E-2,8.968E-2,-8.11183E-3],"split_indices":[11,3,5,6,0,2,5,0,5,0,0,0,0,0,0],"split_type":[0,0,0,0,0,0,0,0,0,0,0,0,0,0,0],"sum_hessian":[9.137707E0,4.9225793E0,4.2151275E0,3.8700423E0,1.0525372E0,2.1267915E0,2.088336E0,1.190683E0,2.6793592E0,1.0615454E0,1.0652462E0,1.0387106E0,1.0496254E0,1.5520357E0,1.1273235E0],"tree_param":{"num_deleted":"0","num_feature":"14","num_nodes":"15","size_leaf_vector":"1"}},{"base_weights":[-8.8457164E-4,8.6836636E-2,-5.883433E-2,-8.143553E-2,9.633941E-2,-6.817031E-2,4.5061376E-2,-7.2078995E-2,3.8052753E-2,-5.7631567E-2,1.6150436E-1,8.3808236E-2,-3.3183608E-3],"categories":[],"categories_nodes":[],"categories_segments":[],"categories_sizes":[],"default_left":[0,0,0,0,0,0,0,0,0,0,0,0,0],"id":53,"left_children":[1,3,5,7,-1,-1,9,-1,-1,-1,11,-1,-1],"loss_changes":[5.614883E-2,1.9954795E-1,1.2645425E-1,1.4153996E-1,0E0,0E0,1.6751821E-1,0E0,0E0,0E0,8.155745E-2,0E0,0E0],"parents":[2147483647,0,0,1,1,2,2,3,3,6,6,10,10],"right_children":[2,4,6,8,-1,-1,10,-1,-1,-1,12,-1,-1],"split_conditions":[-4.3219018E-1,4.183488E-1,-1.3493444E-1,-3.0999464E-1,9.633941E-2,-6.817031E-2,-2.3532352E-1,-7.2078995E-2,3.8052753E-2,-5.7631567E-2,3.5707504E-1,8.3808236E-2,-3.3183608E-3],"split_indices":[6,3,6,7,0,0,5,0,0,0,6,0,0],"split_type":[0,0,0,0,0,0,0,0,0,0,0,0,0],"sum_hessian":[9.04045E0,3.3981035E0,5.642347E0,2.357414E0,1.0406893E0,1.6999052E0,3.9424415E0,1.2503543E0,1.1070598E0,1.0842677E0,2.8581738E0,1.3305714E0,1.5276024E0],"tree_param":{"num_deleted":"0","num_feature":"14","num_nodes":"13","size_leaf_vector":"1"}},{"base_weights":[1.2096104E-3,6.2039692E-2,-6.8232924E-2,1.5501563E-1,-3.8207058E-2,4.093809E-2,-6.381685E-2,-1.6709182E-2,8.3919026E-2,3.102235E-2,-6.0022157E-2,-2.260021E-2,4.7759313E-2],"categories":[],"categories_nodes":[],"categories_segments":[],"categories_sizes":[],"default_left":[0,0,0,0,0,0,0,0,0,0,0,0,0],"id":54,"left_children":[1,3,5,7,9,11,-1,-1,-1,-1,-1,-1,-1],"loss_changes":[4.592788E-2,5.984451E-2,8.892273E-2,9.965229E-2,1.0289138E-1,6.335345E-2,0E0,0E0,0E0,0E0,0E0,0E0,0E0],"parents":[2147483647,0,0,1,1,2,2,3,3,4,4,5,5],"right_children":[2,4,6,8,10,12,-1,-1,-1,-1,-1,-1,-1],"split_conditions":[9.180725E-1,9.643829E-1,-6.263809E-2,-2.7244583E-1,-8.3111025E-2,-1.7204101E-1,-6.381685E-2,-1.6709182E-2,8.3919026E-2,3.102235E-2,-6.0022157E-2,-2.260021E-2,4.7759313E-2],"split_indices":[11,9,7,13,13,13,0,0,0,0,0,0,0],"split_type":[0,0,0,0,0,0,0,0,0,0,0,0,0],"sum_hessian":[8.870456E0,4.7852707E0,4.085185E0,2.1992188E0,2.586052E0,2.7352254E0,1.3499593E0,1.0234452E0,1.1757735E0,1.5719397E0,1.0141122E0,1.562229E0,1.1729965E0],"tree_param":{"num_deleted":"0","num_feature":"14","num_nodes":"13","size_leaf_vector":"1"}},{"base_weights":[8.6666754E-4,5.7481118E-2,-9.335055E-2,-2.3655523E-2,1.1452442E-1,3.686593E-2,-6.250422E-2,-2.1117527E-2,7.102123E-2,-4.006582E-2,2.9062245E-2],"categories":[],"categories_nodes":[],"categories_segments":[],"categories_sizes":[],"default_left":[0,0,0,0,0,0,0,0,0,0,0],"id":55,"left_children":[1,3,5,-1,7,-1,-1,9,-1,-1,-1],"loss_changes":[5.7417158E-2,6.1247777E-2,1.2615985E-1,0E0,9.023157E-2,0E0,0E0,5.7446443E-2,0E0,0E0,0E0],"parents":[2147483647,0,0,1,1,2,2,4,4,7,7],"right_children":[2,4,6,-1,8,-1,-1,10,-1,-1,-1],"split_conditions":[2.3943614E-2,5.902813E-1,7.486547E-1,-2.3655523E-2,1.2366939E0,3.686593E-2,-6.250422E-2,1.710265E-1,7.102123E-2,-4.006582E-2,2.9062245E-2],"split_indices":[6,1,8,0,0,0,0,3,0,0,0],"split_type":[0,0,0,